0.04538
-0.06163
0.01228
-0.05457
0.05717
0.06448
-0.07638
-0.07233
0.01804
0.01822
0.03628
-0.04932
-0.04488
0.02751
0.22108
-0.21059
0.04454
0.01073
-0.02929
0.01883
-0.02315
-0.00799
-0.07834
-0.07290
-0.06991
-0.04571
-0.05822
-0.05425
0.04270
-0.05714
-0.02704
0.02101
-0.04161
-0.04690
0.15762
0.09794
-0.08207
-0.00808
-0.01974
0.05117
-0.02080
0.05520
-0.02645
0.02943
-0.04460
-0.05410
0.00742
-0.04613
0.00267
0.18784
-0.05211
-0.01095
-0.05232
-0.02491
0.00200
0.02441
0.05482
0.15988
-0.01456
-0.00685
-0.00632
0.07862
0.03388
-0.13931
-0.06871
0.12790
-0.05738
-0.21502
0.05300
0.03376
0.03430
-0.04115
0.06272
-0.04145
0.03508
0.20204
0.05078
-0.05080
-0.00160
-0.06495
-0.05995
-0.01961
0.11757
-0.02429
0.04499
0.04377
0.18677
-0.02523
0.02134
-0.01102
-0.24340
-0.00236
-0.05356
-0.02431
0.05550
-0.28885
0.00195
-0.04129
-0.05553
0.07118
-0.05841
-0.14420
-0.01586
0.03108
-0.14941
-0.04574
0.07570
0.02177
-0.02266
-0.09411
0.01290
-0.16853
0.00561
0.02769
-0.05003
-0.05048
0.00740
0.01496
-0.01731
0.03378
-0.03007
0.14058
-0.01237
0.00590
0.02202
-0.03353
-0.22731
-0.13108
0.01098
0.01748
-0.03931
-0.05967
-0.00916
0.04257
0.21084
-0.03501
-0.00748
-0.01328
-0.07179
-0.01002
-0.04030
0.07397
-0.05636
0.03676
0.05422
-0.00193
-0.04362
0.05249
-0.05669
-0.02931
-0.04828
0.01070
0.03491
-0.06121
0.00752
-0.05176
0.28188
-0.01459
-0.05176
-0.00340
0.05539
0.05725
0.00162
-0.00547
-0.05464
0.06095
0.04994
-0.03041
0.13388
0.09207
0.01253
0.22873
-0.00568
-0.00943
-0.09980
0.04390
0.05077
-0.04299
-0.00587
-0.04081
0.04381
0.05778
-0.04172
0.13868
-0.03564
0.01628
0.06194
-0.07586
-0.10786
0.05693
-0.02034
0.03277
0.07172
0.03217
0.04691
0.07149
-0.01654
-0.00403
0.03635
-0.05136
-0.05905
-0.01540
0.07999
0.05546
-0.05773
0.05169
-0.08295
0.05327
0.12232
-0.00761
-0.13200
-0.01040
-0.02853
0.04557
0.05926
-0.05768
-0.05220
-0.15414
-0.03092
0.15148
-0.04366
-0.02171
0.04352
-0.05046
0.12712
0.08424
-0.06782
-0.03772
-0.04256
0.07541
-0.01247
-0.06608
0.11524
-0.05918
0.03023
-0.07368
0.01923
-0.01464
0.00521
-0.01092
-0.01408
0.07592
0.04433
0.01399
0.05731
0.06530
-0.03774
-0.03148
-0.01351
0.10589
0.05099
0.04649
0.05012
-0.01690
-0.19234
0.37943
-0.05089
-0.04783
-0.00747
-0.03816
-0.05273
-0.07209
-0.10245
0.12307
0.02590
0.05675
-0.00490
0.03964
-0.05176
0.03926
0.03098
0.05322
0.07138
0.01015
-0.05742
-0.21323
-0.02569
-0.00753
-0.01372
0.05695
0.03985
0.02756
-0.02991
0.00001
-0.01637
-0.05463
-0.06060
-0.03773
0.16177
-0.07709
0.01769
-0.02823
0.04386
-0.05787
0.02723
-0.00214
-0.00166
-0.07255
0.00317
-0.05372
0.04209
0.06066
0.02202
-0.03591
-0.07075
-0.35540
-0.02433
-0.02668
-0.10138
0.02675
0.01981
0.02291
0.05628
-0.05656
-0.03445
-0.02256
0.04684
-0.02066
-0.00930
-0.07599
-0.04815
-0.06116
-0.04869
-0.01596
0.03768
-0.00992
-0.12591
0.02944
0.07224
-0.04258
0.04427
0.10368
0.00824
-0.05611
0.05640
0.02789
-0.03805
0.12230
-0.03653
0.07985
0.04584
-0.03924
0.04231
0.04738
0.08280
-0.21346
0.02525
0.00773
-0.01165
0.05639
0.03150
0.08977
0.04686
-0.04678
0.04190
-0.04412
-0.05631
-0.03191
-0.01617
0.05294
0.01299
0.02290
-0.04321
-0.03462
-0.03034
-0.06049
-0.02165
-0.02377
0.02196
0.05436
0.00013
-0.04775
-0.03295
-0.02466
-0.01011
-0.05556
-0.04829
-0.01571
-0.00760
0.01226
0.00394
0.02778
0.04498
0.03901
0.01958
0.01379
0.03624
-0.02937
-0.00189
0.03341
-0.03444
-0.03212
-0.05500
0.01789
-0.01518
0.01740
-0.04882
-0.03197
-0.05997
0.03946
-0.05648
0.03752
-0.04368
0.01220
-0.03636
0.01532
-0.03727
0.03397
0.01560
-0.00232
0.01886
-0.01632
0.04190
0.03300
-0.00372
-0.04954
0.06022
-0.04591
-0.03545
-0.02419
0.05344
0.04964
0.03712
-0.05963
0.04156
-0.01225
-0.02748
-0.03733
-0.00654
-0.01186
0.02703
-0.02002
-0.04385
0.05029
0.06108
0.01783
0.05084
0.00889
0.05360
0.05015
-0.01369
0.04251
0.00035
-0.04795
0.06026
-0.01881
0.01875
0.05220
0.02050
0.05467
0.00089
-0.02066
-0.01855
0.00112
0.03760
0.04927
-0.01878
-0.05523
-0.02293
-0.00127
-0.01975
-0.02470
-0.01008
0.05205
0.04333
-0.03146
0.00600
0.03589
-0.01279
0.04247
0.00772
0.00566
-0.03371
-0.02680
0.03739
0.03766
-0.02147
0.03820
-0.01116
-0.01234
0.01985
0.25335
-0.12390
-0.01224
0.07889
0.06418
0.04504
-0.11211
-0.02734
-0.08032
-0.00717
-0.01878
-0.04641
0.05808
-0.06583
0.09465
-0.01552
-0.03624
0.09132
0.01855
-0.01162
-0.05793
-0.09944
0.07239
-0.14510
0.03949
0.04881
0.00303
-0.00475
0.02629
-0.03927
-0.04926
-0.04289
0.05742
-0.02290
0.12568
0.08937
0.03878
0.05063
0.03684
0.00154
-0.00313
0.03979
-0.01867
-0.05549
-0.01188
0.00264
0.01893
-0.10499
0.19294
0.02238
0.05580
-0.04951
0.04747
0.04331
-0.05880
-0.00579
0.15577
0.03754
0.06007
-0.04263
-0.02060
0.01705
-0.05937
0.16217
0.04552
-0.07685
0.07278
0.04330
0.00520
-0.06142
0.00958
0.13057
-0.02348
0.02084
-0.01169
-0.01268
0.01118
0.01311
-0.18668
-0.05793
0.02844
-0.15708
0.04791
0.02436
-0.01475
0.03304
-0.00339
0.07829
-0.02891
0.11212
0.02706
-0.02077
0.05772
0.00067
-0.09778
0.02137
-0.10352
0.00633
-0.07136
0.02274
0.06459
0.02011
0.05927
-0.05335
0.27431
-0.01091
0.03303
-0.00171
-0.01957
0.03804
0.22889
0.15363
0.05204
-0.03001
0.03093
0.01775
-0.03338
-0.01843
0.02864
0.03334
0.19169
-0.01118
-0.00390
-0.00191
-0.01983
-0.03853
-0.09803
-0.05410
-0.05062
-0.04307
0.05014
-0.05724
0.05274
-0.06172
-0.06297
0.04978
-0.05062
0.07477
0.00620
0.03658
0.10829
0.04644
-0.20642
-0.07896
0.01887
0.03667
0.02888
-0.01867
0.05335
0.04985
0.03708
0.07082
-0.03069
-0.20523
-0.04061
0.17249
-0.00820
0.03696
-0.04268
0.05752
0.03691
-0.05009
-0.00884
-0.01284
-0.02035
0.03796
0.03012
0.09585
-0.04161
0.04143
0.20939
-0.01307
0.03348
0.13180
0.03549
0.03176
-0.19027
0.05826
-0.00535
-0.05002
-0.06623
0.02458
0.12239
-0.07195
0.01775
0.08763
-0.03490
0.07700
0.03541
0.00663
-0.04390
-0.16690
-0.03304
0.01792
-0.07084
0.02570
0.01652
0.04306
-0.07087
0.01470
0.03941
0.09165
-0.00601
0.00845
0.03695
0.17884
0.05039
0.06658
0.04223
0.21360
0.07131
0.03576
0.00944
-0.03709
0.20135
-0.04717
0.12283
-0.01640
-0.15653
-0.01705
0.05787
-0.02075
0.03540
0.19385
0.07123
-0.06858
0.01138
-0.00493
-0.08689
0.05415
0.01227
-0.13007
-0.05155
0.00757
-0.15337
-0.02043
0.02051
-0.03714
-0.02790
0.04760
-0.04798
-0.17099
-0.01391
-0.02990
0.05254
-0.03070
0.15082
-0.04166
0.20634
0.05852
0.03226
-0.00706
-0.01961
0.08162
0.28706
-0.05129
0.04867
0.01599
-0.00939
-0.05112
0.10589
-0.10306
0.23224
0.25186
0.03393
0.02321
0.00501
0.05606
-0.03169
0.01240
-0.03496
0.00431
0.00181
-0.01859
-0.05183
0.05855
0.02521
-0.02734
0.03342
0.00091
-0.02647
0.02695
-0.02344
-0.00251
-0.01602
0.00765
-0.02857
0.07153
-0.20239
0.03021
0.02313
0.04281
0.00021
-0.15144
-0.05822
0.01885
0.21320
-0.05363
-0.01015
0.00588
0.06929
0.04867
-0.18151
0.21423
-0.11114
0.06984
0.06139
0.07061
-0.05386
-0.05527
-0.02362
0.08842
-0.05511
-0.02343
-0.04150
-0.02085
-0.02903
0.04504
0.02658
0.04359
-0.06123
0.01962
0.06986
0.02135
-0.00694
-0.18664
0.00342
0.07194
-0.05540
-0.12854
0.06620
-0.04875
-0.01008
-0.03156
0.00449
-0.04609
0.17569
-0.03360
0.11582
0.04576
-0.06820
-0.03285
0.01630
-0.14702
-0.05104
-0.09411
-0.05213
-0.05009
-0.08607
-0.01034
0.04200
-0.01168
-0.00197
0.05616
0.20096
0.05673
-0.04298
-0.00137
-0.05395
-0.05838
0.05748
0.11867
-0.01240
-0.02018
0.06801
0.07683
-0.15459
-0.00446
-0.01324
-0.01607
0.00009
0.02897
0.06074
0.04546
-0.12294
0.00872
-0.02622
-0.05933
0.04984
-0.04421
-0.19813
-0.17113
-0.18719
-0.24303
-0.06103
0.05039
0.01731
0.05154
-0.01890
0.03317
0.03387
-0.12019
0.02438
0.03346
0.17906
0.00760
0.00358
-0.03689
-0.00534
0.03499
0.00368
-0.04123
0.05100
0.03559
0.03687
0.00438
-0.02573
-0.00773
0.04081
-0.05621
-0.04421
0.03408
-0.03732
0.02704
0.05421
-0.04578
0.02512
-0.01960
0.03721
-0.04796
-0.11723
0.01483
-0.10508
-0.17310
-0.00475
-0.12974
-0.05193
0.07148
-0.03479
-0.05763
0.03301
0.13347
-0.05740
-0.01401
0.01657
0.03130
0.02307
-0.01542
-0.10114
-0.05340
-0.00426
0.10057
0.10432
0.02080
-0.05826
0.14319
0.02395
0.10642
-0.01280
-0.01619
0.10712
0.02428
-0.02081
-0.00545
-0.14575
-0.00288
0.02021
-0.01458
-0.02187
0.00534
0.06652
-0.01011
-0.02740
-0.11954
-0.01649
0.05503
-0.01104
0.02254
-0.01514
0.05936
0.17369
0.19938
-0.04672
0.02091
-0.14396
-0.00480
0.03986
-0.03710
0.00059
-0.01485
-0.11867
0.02869
0.01541
-0.13887
0.00716
0.02998
0.07539
0.01422
0.08957
-0.00724
-0.02636
-0.00832
0.03962
0.20301
0.08041
-0.05014
-0.05282
-0.01531
0.05930
0.04764
0.04618
-0.08295
0.06792
0.12783
0.04264
-0.01311
-0.00879
0.06085
0.05629
0.05312
-0.00716
-0.04818
0.05510
-0.04892
-0.06431
-0.02708
0.03980
-0.05189
0.05446
0.06034
0.05753
0.03812
-0.02984
-0.05597
0.04016
0.01976
-0.05535
0.21869
-0.30659
-0.04860
-0.07644
-0.01731
0.02238
0.06764
-0.04821
0.03276
0.21192
0.03032
-0.00303
-0.04286
0.00358
0.02314
-0.13582
-0.04481
-0.02916
-0.02620
-0.03149
0.06483
-0.00274
0.04684
0.02675
0.07056
0.04925
-0.02608
-0.02756
-0.05442
-0.01121
-0.02255
0.03444
0.02237
0.04256
0.25519
0.07077
0.03651
-0.05584
-0.06937
0.00288
0.00220
0.02523
-0.06249
0.02035
-0.01023
0.04496
0.03748
-0.01543
0.05394
0.26054
0.00779
0.18180
0.05346
0.01496
-0.02537
-0.01700
-0.15485
-0.12488
-0.09523
-0.02605
-0.04869
0.04059
-0.02788
-0.13612
0.04737
0.01263
-0.02880
0.13060
-0.03775
-0.04555
-0.02399
0.03530
0.01498
0.03362
0.04749
-0.03384
-0.06904
-0.07218
0.27301
0.01534
-0.02428
-0.26829
0.05797
-0.03720
0.05682
0.00032
-0.11886
-0.06105
0.00604
0.02038
0.20631
0.05076
0.02456
-0.07210
0.09216
0.09063
-0.12099
0.02706
0.03939
0.01991
0.04675
-0.03815
-0.01116
-0.03751
0.25993
-0.01544
0.13964
0.07098
0.23112
0.01718
0.03923
0.02182
0.00461
0.00863
-0.05272
0.03086
-0.01484
-0.02494
-0.01760
-0.01144
-0.00902
0.13178
0.00433
-0.06488
-0.01969
-0.00858
0.04226
0.05860
-0.00732
-0.00105
0.01684
0.02784
-0.03008
-0.07095
0.02908
0.19457
-0.07922
0.17101
0.06886
0.07218
-0.13570
0.01746
-0.04503
-0.02892
0.09897
-0.02740
-0.01781
0.09377
0.02019
-0.02916
0.05562
0.19054
-0.00267
0.01458
-0.07022
-0.21007
0.05159
-0.03391
0.03368
-0.00612
0.19161
-0.03823
0.21413
-0.07806
-0.01349
0.03484
-0.01069
-0.09513
-0.03760
-0.11446
0.01305
0.06128
0.03466
0.17721
-0.03155
0.02706
-0.12138
0.07138
0.04277
-0.00690
0.00668
0.21207
-0.00887
0.26716
0.08452
-0.00808
0.02944
-0.02006
-0.02614
0.01314
0.00892
-0.03814
0.02321
0.06309
0.14463
-0.05919
0.06738
0.08876
-0.20612
-0.09983
-0.01111
0.24424
-0.00287
0.05076
-0.00354
0.03051
0.00915
0.07689
0.01827
-0.04608
-0.08559
0.01591
0.02352
-0.04564
-0.18710
0.01820
0.14062
0.05889
-0.04036
0.00460
-0.00533
0.00113
0.00632
0.03475
-0.07114
-0.05993
-0.08573
-0.23148
0.09116
-0.04499
0.05114
-0.04814
-0.00060
0.01979
0.00275
0.03446
0.04251
0.05102
-0.04395
0.04977
0.28711
-0.14845
-0.05449
0.11605
0.04414
-0.04801
0.06683
-0.05604
-0.01908
-0.07040
-0.01138
0.05058
-0.05897
-0.03471
0.01246
-0.11498
-0.11455
-0.22911
-0.06060
-0.15530
0.06923
-0.05343
0.04541
0.04287
0.07025
-0.04575
0.03998
-0.06215
-0.02622
0.03725
0.00674
-0.10934
-0.03059
-0.02095
0.07092
0.07820
-0.02864
-0.03132
-0.06672
-0.02237
0.20887
0.03118
-0.07146
0.06326
-0.03605
0.03325
-0.03468
0.09888
0.04381
0.07907
-0.05757
0.05453
0.01264
-0.07115
-0.00556
-0.02934
0.06779
-0.04236
-0.01960
0.02625
-0.02205
0.01760
0.02250
-0.14501
0.18426
0.01624
0.05008
-0.18322
0.05532
0.05582
0.02501
-0.04719
0.05624
-0.11972
-0.03337
-0.04600
-0.19565
-0.18404
0.10323
0.21460
0.05880
0.05625
0.03888
-0.05220
-0.02860
0.04402
0.05426
-0.06769
-0.05173
0.01836
0.05869
-0.01240
0.04673
0.21216
0.14244
0.29621
0.09351
-0.02516
-0.01664
0.04806
0.01595
0.05135
-0.03961
-0.02674
0.04687
-0.02947
0.14952
0.14943
0.07204
-0.04347
-0.05509
0.01022
0.03572
-0.03189
-0.00158
-0.05416
-0.02945
-0.01928
0.02255
0.03888
0.02614
-0.20492
0.03046
-0.07110
0.01682
-0.05666
-0.17489
-0.02883
0.01547
0.15851
-0.02200
0.00070
-0.00424
-0.02558
-0.02139
0.07397
0.21489
0.25324
0.07044
0.15243
-0.01022
0.00637
-0.00685
-0.00760
0.06612
0.04246
0.00702
-0.02472
-0.00535
0.00423
-0.02665
0.20585
-0.02200
-0.05959
-0.13375
-0.03891
0.00212
0.05090
0.03773
-0.04075
-0.04872
0.01389
-0.04705
-0.06511
0.04618
0.05906
0.05703
-0.03192
0.04072
-0.09784
0.02513
0.00679
-0.03958
0.12817
0.05105
-0.05477
-0.12826
0.04544
-0.22976
-0.02879
0.00161
0.19954
0.00483
0.16237
-0.04217
-0.05267
0.05888
0.17216
-0.04860
0.03030
-0.05972
0.03380
-0.03356
-0.02107
-0.16889
-0.03923
-0.03209
-0.08510
0.22058
-0.00806
-0.04127
-0.10935
0.05208
-0.02120
0.00690
0.01762
0.05649
-0.04300
0.05706
-0.03213
0.19258
-0.03852
-0.03748
0.07129
-0.00254
0.04802
-0.13296
0.00508
-0.00600
0.01641
0.03293
0.01346
-0.00602
0.00603
0.07132
0.02297
0.05357
-0.01909
0.00822
0.01582
0.02602
0.02629
-0.01449
-0.05382
0.00878
0.02283
-0.00757
0.05055
-0.01468
0.04420
-0.05232
0.02757
-0.03330
-0.04788
-0.01583
-0.04892
0.20087
0.04921
-0.03977
0.08888
-0.05069
0.00120
-0.01467
-0.09983
-0.02603
-0.06216
-0.07687
0.02069
-0.09966
0.04415
0.08910
-0.03700
-0.00671
-0.04315
0.06433
-0.05314
-0.00874
0.07766
0.00627
-0.04840
-0.02488
0.02247
0.03540
-0.05767
0.03593
-0.01400
-0.04803
-0.03545
0.16426
-0.00562
0.10832
0.00154
0.00564
0.21466
0.01696
-0.00625
0.03041
-0.08395
-0.00839
0.23733
0.04251
0.08528
-0.01027
0.20253
-0.02086
0.02378
-0.23425
0.05956
0.04272
0.01536
-0.03904
-0.07172
0.06083
0.11556
0.14565
-0.01368
-0.04526
0.07219
-0.05111
-0.01967
-0.00962
0.01850
0.00554
0.06629
0.18727
0.04459
0.02882
-0.05714
0.06685
-0.03189
-0.02998
-0.06491
0.00698
-0.02205
-0.00077
-0.01529
-0.11488
0.06928
0.04640
-0.03583
-0.05075
0.02711
-0.02882
-0.07878
0.08577
0.11419
-0.09261
0.05397
0.05910
-0.01418
-0.02512
0.00388
-0.01248
0.04457
0.01341
-0.03279
0.11011
0.00238
0.03940
-0.03789
0.04009
0.00304
0.03574
0.02762
0.04351
0.02917
0.00966
0.03972
0.05450
-0.01488
0.01314
0.12102
0.00108
0.14230
-0.05197
0.05764
-0.21522
-0.03503
-0.00848
-0.01165
-0.02889
-0.03772
-0.05530
0.14895
-0.01465
0.03080
-0.10586
-0.23058
0.07897
0.07613
-0.14197
0.04770
-0.04995
-0.00112
0.21379
0.02590
0.05620
-0.08280
-0.01520
-0.03144
-0.03322
0.02968
-0.02333
0.00181
-0.14573
0.02152
0.06084
0.05999
-0.07132
-0.03979
0.05656
0.01364
-0.09285
-0.03462
-0.00316
0.03903
-0.03626
-0.02419
0.05439
-0.13837
0.00261
0.05864
0.05312
0.04519
-0.03589
-0.04064
0.19447
-0.21574
0.14529
0.02401
-0.01512
0.22509
-0.02427
0.16507
0.18788
-0.00187
-0.00559
-0.06610
-0.03189
0.03420
0.03099
0.00588
-0.04655
0.11429
-0.18743
0.04194
-0.05173
-0.08310
0.01331
-0.05522
0.01168
-0.32816
0.04294
0.04945
0.02215
0.02062
-0.05802
-0.14370
-0.05823
0.05846
0.04007
0.01805
-0.02679
0.19313
0.08043
-0.07016
-0.03284
-0.01522
-0.04830
-0.00820
0.02862
-0.03223
0.02664
-0.04519
-0.03061
-0.06062
0.03695
-0.07960
0.12807
0.00709
-0.01973
0.04094
-0.02981
0.02778
0.00516
0.01227
0.01003
-0.00590
0.03635
-0.02490
-0.20475
0.12385
0.02742
0.07056
-0.00873
-0.04721
-0.02928
-0.05299
-0.05404
0.20357
0.03075
-0.05719
-0.03370
0.07126
-0.01566
0.04954
-0.06664
0.07157
0.04501
-0.06590
-0.10150
0.00945
-0.01115
0.03962
0.06210
0.01776
0.04069
0.19581
0.05305
0.04834
-0.02250
0.07672
-0.03321
-0.05445
0.06297
0.01046
-0.03600
0.04998
0.13897
0.04569
0.15117
-0.01907
-0.19839
0.13290
-0.03969
-0.05180
0.00916
-0.16006
-0.04802
0.22023
-0.02114
0.15934
0.01358
-0.02644
-0.00953
-0.00944
0.11214
-0.01415
-0.02904
-0.02743
0.00866
-0.13841
0.00811
0.02636
0.01326
0.01666
-0.00229
0.17884
0.00679
-0.03272
0.04793
-0.04885
-0.05006
-0.02120
0.04297
-0.00656
-0.02576
-0.07075
0.03216
-0.04743
-0.06012
0.02425
0.03634
-0.02299
0.00759
-0.01413
0.04465
0.01922
-0.01361
-0.02167
-0.02095
0.01689
-0.04190
0.04736
0.00527
-0.01671
-0.06151
-0.01997
-0.00658
-0.05946
-0.00494
0.05790
0.02546
0.01607
0.03297
0.01860
-0.05061
-0.00984
0.03188
-0.02146
0.00494
-0.04331
0.04696
0.01805
0.02579
-0.01508
0.03695
-0.00732
-0.05322
0.03803
0.02909
-0.01594
0.03575
0.00740
0.02545
-0.04450
0.04786
-0.04645
-0.05231
-0.04037
-0.00707
-0.05319
0.04960
-0.00501
-0.03292
-0.00417
0.01775
0.02023
0.04124
0.00404
0.02945
0.01426
0.05173
-0.02436
-0.02140
0.02605
0.04180
-0.04362
-0.06041
0.03685
0.04453
-0.02833
-0.00643
-0.05552
0.01226
-0.02932
0.03248
-0.03431
-0.04800
-0.02129
0.02404
-0.04148
0.00246
-0.05245
-0.03029
0.02448
-0.00330
-0.01236
-0.04648
0.04224
0.05146
0.01195
-0.00903
-0.02429
-0.05302
-0.00775
-0.02011
-0.06131
-0.00981
0.02358
-0.03745
0.03542
0.01960
-0.02262
0.02339
0.02388
0.05781
0.03820
-0.05867
0.03275
-0.06017
-0.00486
-0.02584
0.07818
0.08925
-0.00333
-0.11619
-0.17076
0.02358
0.07154
-0.05000
-0.07561
0.05824
-0.04527
-0.02886
-0.00997
0.08262
-0.08820
-0.03130
0.03727
0.08231
-0.03811
0.03150
-0.05712
0.06282
0.07013
-0.05488
0.03041
-0.03002
0.01930
0.03376
0.03642
-0.05595
0.03026
0.04582
-0.01022
-0.06079
-0.18258
0.12884
-0.03588
-0.01521
0.01913
0.05163
-0.01969
0.04204
0.05897
-0.06026
-0.01005
0.04665
-0.01292
0.34516
-0.17105
0.03242
0.10178
-0.01007
0.00828
0.00127
0.04959
-0.00536
-0.05860
0.05927
-0.01017
-0.00529
-0.18573
0.01527
0.12986
-0.30817
-0.07072
0.00849
-0.03108
-0.07234
0.05139
-0.01052
0.02823
0.14586
0.03106
0.01355
-0.06392
0.04706
0.04928
0.00641
0.05606
0.01159
0.00338
0.07304
0.07081
0.05501
0.01868
0.13449
-0.02616
0.08549
-0.02384
0.07695
-0.01295
0.05987
-0.01118
-0.03611
0.08761
0.05558
0.11295
-0.04138
0.13809
0.01613
0.21500
-0.03310
0.03644
0.05122
-0.06437
-0.07150
0.03065
-0.05238
0.19314
0.04802
-0.14871
0.13983
-0.00321
0.06082
-0.09196
-0.04935
0.02715
-0.04718
-0.01666
0.05033
0.04469
0.11288
0.03307
0.07924
0.18250
0.10058
-0.01475
-0.05493
-0.01112
-0.01271
-0.03194
0.02970
0.01000
-0.02352
0.05252
-0.01899
-0.00264
0.05167
-0.02605
-0.04560
-0.17699
-0.07522
0.06768
0.00946
0.01045
-0.00734
0.03989
0.02747
0.03477
-0.03762
0.01585
0.04830
-0.04287
0.06676
-0.10204
0.09025
0.02730
-0.03862
-0.01657
0.02051
-0.03466
-0.02414
-0.02246
-0.04529
0.01264
-0.00456
-0.00929
0.06208
0.00598
0.02269
0.04994
0.03956
-0.01036
0.07609
0.04124
-0.03496
0.04109
0.04189
0.00225
0.00048
0.09542
-0.01746
-0.10196
-0.10608
-0.07859
-0.15413
0.00023
-0.04713
0.05121
0.05033
-0.02855
0.07199
0.01132
0.04440
0.05977
0.03904
0.00787
0.02150
0.06812
0.00706
-0.00803
-0.00612
-0.12189
0.01119
-0.04024
-0.07359
0.05561
0.08591
0.05328
-0.06446
0.02729
-0.03765
-0.02919
-0.00259
0.01083
0.04872
0.01024
-0.02688
0.20808
-0.00558
-0.00188
-0.02176
0.03662
-0.04908
-0.09912
0.21474
-0.03264
0.05990
0.15861
-0.00862
0.02718
0.21514
0.00983
-0.01926
-0.02005
-0.04735
-0.02451
-0.04055
-0.01869
-0.04332
-0.05073
-0.04627
-0.03777
0.01394
0.13212
0.09898
0.05905
-0.05934
0.17613
0.03311
-0.05157
0.04527
-0.03712
0.11709
0.13114
0.00632
-0.00523
0.19158
-0.03249
0.01702
0.03018
-0.08000
0.11705
0.18634
-0.03190
0.04095
0.02139
0.05987
0.04955
-0.02599
0.02947
0.04010
-0.01298
0.14320
0.10138
0.05425
-0.04209
0.01606
-0.01898
0.02830
-0.00058
-0.05679
-0.00367
0.05025
-0.05836
0.05792
-0.04614
0.11454
-0.08441
-0.00766
-0.06908
0.03935
0.03401
0.07169
-0.01597
0.00619
0.20317
-0.01332
0.03753
0.01148
-0.09924
0.00899
-0.09279
0.17490
0.08214
-0.02005
0.03663
0.16140
0.02042
-0.00672
-0.02577
0.12830
-0.02134
0.03606
0.05433
-0.03915
0.05012
0.05142
0.02676
-0.03885
0.05587
0.13914
-0.07934
-0.00146
0.04594
0.00066
-0.05847
0.21134
0.05949
-0.03870
0.02308
0.05428
0.03968
-0.00802
-0.05236
-0.02579
-0.11480
0.00246
0.06767
-0.03149
0.07900
0.00247
-0.06067
-0.21185
0.13454
0.07068
0.03814
0.01362
0.14641
0.05323
0.19476
0.10339
-0.05824
-0.00445
0.06534
0.03686
0.04265
-0.05978
0.03092
0.00676
0.11215
0.03167
0.05465
-0.08322
0.07144
-0.07151
-0.04566
-0.03583
0.05426
0.02719
0.00020
-0.00821
-0.05744
0.01351
-0.08061
-0.03515
-0.05097
-0.01630
0.02030
-0.02202
0.07957
-0.08738
-0.07155
0.04306
0.04117
0.02700
0.01366
-0.05395
-0.02375
0.01098
0.02911
-0.03594
0.04542
-0.07148
0.01144
0.04797
-0.02332
0.04061
-0.02114
0.00680
-0.03437
0.04650
0.00725
-0.05693
-0.05491
-0.04129
0.02668
0.11114
-0.06017
0.04232
0.11936
0.02803
0.04978
0.01394
0.03650
0.04156
0.01140
0.01087
-0.04993
-0.04058
-0.01158
-0.01806
-0.09144
-0.01490
0.02551
-0.07115
-0.12780
0.07091
0.02334
0.04862
-0.00109
0.09164
-0.00281
0.03891
0.01483
-0.01939
0.05914
-0.04771
-0.14249
-0.04536
-0.04366
0.15028
0.08618
0.04369
-0.02867
0.03796
-0.00746
0.07768
0.00275
0.00540
0.13962
0.01132
-0.00084
-0.04764
0.02258
-0.00480
0.03818
0.05017
0.04940
-0.01769
0.01171
0.02968
-0.05480
-0.09737
0.05169
-0.06708
-0.04409
0.05636
-0.05659
-0.06142
-0.06982
0.06120
-0.02612
-0.00146
0.01239
0.05303
-0.05051
0.02232
-0.02823
-0.04062
0.06507
-0.08349
0.05911
0.12901
0.05786
-0.07142
-0.02743
-0.05436
-0.07110
0.05202
-0.03585
0.06110
0.00749
-0.10537
-0.07141
0.04661
-0.05149
0.00544
0.01666
0.00576
0.08583
0.00625
-0.17249
0.02248
0.01606
0.04860
0.04995
-0.05712
0.04917
-0.01789
0.00164
0.06235
0.03318
-0.03066
0.20362
-0.01362
-0.00417
0.04779
0.00961
-0.01357
0.02922
-0.03137
0.02802
0.03898
0.05381
0.03470
-0.05171
-0.27132
0.25682
-0.00312
0.08424
0.05502
0.01582
-0.04132
-0.05383
0.01880
0.06382
-0.05616
-0.05201
0.03460
0.18644
0.01270
0.06976
0.24309
-0.00482
0.11078
0.02511
0.07052
0.03869
0.02456
-0.05622
-0.11019
0.00417
0.05122
-0.00060
0.04071
-0.01574
-0.03941
0.06831
0.03363
-0.00625
-0.12672
0.08209
0.01644
-0.00050
0.08101
0.01826
-0.12969
-0.04620
0.02581
-0.07061
0.04299
0.02581
0.00182
0.11863
-0.01568
-0.08919
-0.04528
-0.20103
0.03415
-0.15639
0.01729
-0.00508
0.21408
0.07040
0.17370
0.03017
-0.04178
-0.13978
0.00442
0.05528
-0.14684
-0.02153
0.03730
0.08404
-0.05161
-0.01457
0.05708
-0.04479
0.01030
0.07162
-0.10400
-0.01233
0.18267
0.18388
0.15900
0.00922
0.03929
0.03014
0.04019
0.00218
0.01795
-0.03639
-0.07056
0.20760
0.05260
-0.03197
0.06836
-0.01342
-0.06064
-0.06665
-0.21203
0.11342
-0.04809
0.05524
0.02647
-0.02015
0.00417
-0.04060
0.03184
-0.02541
-0.12823
0.02205
-0.16046
0.11113
-0.04808
-0.05797
-0.04091
0.01886
-0.05701
0.03964
0.04347
-0.04734
0.02648
-0.05652
0.03104
0.02879
-0.07238
0.07578
0.05818
-0.10226
0.01562
-0.04781
0.11757
-0.03411
0.04143
0.17002
0.02936
0.00586
-0.05189
0.03161
-0.04515
-0.18055
0.11863
-0.18005
-0.12744
0.08388
0.14602
-0.00015
-0.05573
-0.03182
0.05257
0.05127
0.05323
0.00446
0.03329
0.00783
0.05724
-0.02468
0.03418
-0.05178
0.04376
0.11402
0.05944
-0.02633
0.06208
0.05426
-0.02888
-0.03759
0.08418
0.01799
-0.04668
-0.00915
-0.04846
0.00384
0.05077
0.27155
-0.02825
0.02589
-0.05498
-0.02086
0.03795
0.02096
-0.21649
0.12027
0.07116
0.04407
-0.02403
-0.09098
0.00569
0.20747
-0.01696
-0.03799
-0.02201
0.07190
0.03216
-0.00575
-0.02180
-0.03893
-0.02390
-0.07841
-0.04577
-0.03977
-0.13611
0.00258
-0.07137
0.15403
-0.05962
0.16842
0.04388
0.02463
0.02752
-0.04748
0.20267
-0.16561
-0.05527
0.03130
0.07431
0.01115
0.05782
0.17318
0.06714
0.00074
0.07058
-0.02611
-0.03840
0.03727
-0.05823
-0.03802
-0.03704
-0.00326
-0.08646
-0.03363
0.07082
-0.04761
0.04153
-0.00320
0.04158
-0.01379
-0.04816
-0.03049
0.05993
-0.01260
-0.05717
0.01838
-0.04270
-0.03383
0.20396
-0.13402
-0.03699
0.04562
-0.02744
-0.02272
-0.06139
-0.04945
-0.00104
0.05639
-0.03645
0.02591
0.02367
-0.17405
-0.02346
-0.06634
0.14111
0.21570
0.03402
0.00473
0.19419
-0.05419
0.06123
-0.01343
-0.07453
0.04894
0.00764
0.07647
-0.04896
-0.03961
0.01970
0.00749
-0.02543
0.01607
0.17797
0.00143
0.05727
-0.01254
0.15627
-0.04344
0.23880
-0.05562
-0.03898
-0.06923
0.02425
-0.01956
0.01155
-0.16451
-0.01352
-0.10043
-0.03772
0.02672
-0.02611
0.07404
0.04650
-0.04643
-0.10459
0.11712
-0.06922
0.04268
0.04757
0.06514
0.03061
-0.09704
-0.05887
-0.03926
-0.00355
0.03631
-0.03597
0.00280
-0.04660
0.05856
0.03166
0.19068
-0.07133
0.01886
0.22984
0.21351
-0.00755
-0.04499
0.01289
0.20123
0.00815
-0.03736
0.04566
0.00217
-0.20094
0.24560
-0.02961
-0.04597
0.14772
-0.04328
0.04739
0.03069
0.01088
-0.07340
0.09824
-0.02265
0.03628
-0.00746
-0.03547
0.01610
-0.05841
-0.05967
-0.02819
-0.00041
-0.25823
-0.10549
-0.04305
-0.04338
0.02257
-0.06051
-0.03388
0.00136
0.05080
-0.01127
-0.03299
-0.02466
0.02269
0.04135
0.07438
0.05146
-0.03736
0.05871
0.04036
0.03009
0.20905
0.05887
-0.06098
-0.04530
0.02417
0.00389
0.04661
-0.06115
0.00257
-0.04290
0.11089
-0.19822
-0.01713
0.02113
0.13099
0.04443
0.04832
-0.06011
-0.22008
0.03622
0.06058
-0.03919
-0.03918
-0.05822
0.01389
-0.11447
-0.04762
-0.00862
-0.08722
0.03319
0.04291
0.00175
-0.21405
-0.00722
0.09751
-0.03863
0.07046
-0.03815
0.04831
0.02142
-0.03479
0.18034
0.00945
0.06841
0.04937
-0.12734
0.00661
-0.06237
-0.01821
-0.02504
0.00522
0.07543
0.06317
-0.00868
0.02486
-0.10749
-0.03449
0.12495
-0.06090
-0.01819
0.00181
-0.07081
0.03817
0.04170
-0.00698
-0.00182
-0.02205
-0.06592
0.17959
0.05361
-0.04495
0.01407
0.03279
-0.07238
-0.05420
0.08906
-0.02992
0.01108
0.04621
0.05652
0.05023
0.02828
0.04899
0.00709
-0.10698
0.04781
-0.00894
-0.12757
-0.02819
0.02747
-0.02178
-0.01016
0.05619
0.05538
0.02607
0.05062
0.01342
0.00297
0.02147
-0.05378
0.03609
0.03264
-0.07129
-0.04680
0.02610
-0.02056
0.02454
-0.05721
-0.02194
-0.06114
0.01130
0.02509
0.00157
0.05691
0.06205
0.01974
0.04967
0.01478
-0.04876
-0.05221
0.05857
-0.05756
-0.06067
-0.05957
-0.00317
0.05153
-0.01032
0.07251
0.00974
-0.01726
-0.03687
0.02618
-0.07039
-0.06458
0.05218
-0.03689
-0.03890
-0.03176
-0.03129
-0.05322
0.01832
-0.09502
0.03595
0.01126
0.04255
0.03343
0.01409
-0.00655
0.11931
0.01307
0.03365
-0.01590
0.11802
-0.05217
0.02441
0.02228
0.04931
-0.07495
-0.04177
0.05624
0.01390
0.06010
0.01852
-0.07469
-0.00561
0.05409
-0.04411
-0.02420
-0.02898
-0.04439
0.01495
-0.06177
0.09204
0.02640
-0.04588
0.07211
0.03139
-0.06715
0.05072
0.05731
-0.00976
-0.08761
0.05024
-0.00388
-0.03915
0.03739
0.02739
0.06924
-0.06133
0.00161
0.08965
0.16960
0.03444
-0.02320
-0.03956
-0.16384
0.00289
-0.00756
-0.04382
0.03932
0.07452
-0.02849
0.05498
0.00307
0.17975
0.04781
0.02910
0.18223
0.02348
-0.13318
0.01669
-0.05492
0.00815
0.05381
-0.04617
-0.04585
-0.03529
0.00979
0.07537
0.02567
0.05322
0.02574
-0.00866
-0.04841
-0.02003
-0.05279
0.01065
0.05434
0.04321
0.04634
-0.05629
0.03339
-0.05879
-0.02856
-0.06089
0.20382
-0.01160
0.00668
-0.01233
-0.05370
0.21491
-0.00204
0.00238
-0.01048
0.04279
-0.00606
-0.02707
-0.07113
-0.05386
-0.02852
-0.04071
0.06282
0.06219
-0.04204
0.02636
0.05143
-0.02669
0.01769
-0.07159
-0.04323
-0.01635
0.32757
0.04782
0.02994
0.02270
0.04254
0.00330
0.00798
0.04308
-0.08547
-0.03265
0.00090
-0.07000
-0.03062
0.11848
-0.00881
0.05202
0.12603
0.01463
0.03311
-0.04592
-0.07537
0.04720
-0.02250
-0.05455
0.03916
0.01093
-0.07234
-0.02774
-0.02671
-0.05772
0.17464
0.09628
-0.02226
0.05050
-0.07091
0.05244
0.01502
-0.07114
-0.04259
0.02531
-0.06929
-0.02713
0.03238
0.04405
-0.00157
-0.04119
-0.02119
0.03747
0.05656
-0.00645
-0.04536
0.01193
-0.00501
-0.02958
-0.01159
0.02448
0.00975
0.01154
-0.06142
-0.03413
-0.05182
-0.03684
-0.04645
-0.00969
0.04932
-0.02052
0.03857
-0.03097
-0.01128
-0.02548
-0.04838
-0.00526
0.03328
-0.00467
-0.02122
0.00275
-0.02683
0.01692
0.02268
0.00771
-0.03552
0.01340
0.03852
0.01595
-0.00738
0.01494
-0.00956
-0.03276
-0.04102
0.05357
-0.01090
-0.05614
-0.00365
-0.01068
0.00793
-0.05179
-0.04840
-0.05072
0.05069
0.04015
-0.04854
-0.04366
0.02521
0.00438
0.02530
0.00227
-0.03872
0.05894
0.01710
-0.04370
-0.05981
0.02077
-0.00720
0.03027
0.02203
-0.00286
-0.03394
-0.05550
-0.05078
-0.01017
-0.01626
-0.03453
-0.02948
-0.06073
-0.02929
-0.00184
0.03048
0.04632
-0.04214
-0.06058
0.01318
0.02094
-0.05159
0.01437
0.02953
-0.05709
-0.05985
0.05726
0.01173
-0.05943
0.03047
0.02619
0.05616
-0.00285
-0.01563
0.01574
-0.02444
-0.02016
0.02985
0.00270
0.01462
-0.01664
-0.05540
0.00737
-0.00057
0.00746
0.02207
0.01898
-0.01188
-0.03565
-0.01090
0.05114
0.04993
-0.05089
-0.04927
-0.04945
0.07696
-0.15564
0.00628
0.10425
0.21290
0.00666
-0.06343
-0.05288
0.00533
0.04610
-0.01262
-0.00286
0.03045
0.08375
0.07360
0.02732
0.04582
0.12406
0.03326
0.04937
0.21304
0.09757
-0.09267
0.07921
-0.01998
0.05757
-0.02667
0.04820
-0.02963
-0.00188
-0.05939
0.05584
-0.05289
0.01183
0.00768
-0.07066
0.05018
-0.00290
-0.05232
0.00210
-0.01004
0.04050
0.02641
0.01635
0.00168
0.04230
-0.03972
0.01108
0.19786
-0.05061
0.06488
0.02296
-0.03666
0.13793
-0.05386
0.02848
0.08074
-0.04836
-0.04569
-0.05982
-0.01999
0.01287
-0.07544
-0.02165
0.04581
0.04871
-0.07307
0.07136
-0.05701
-0.04039
0.00384
-0.11993
-0.05585
-0.01232
0.23187
-0.01683
-0.02694
0.01609
0.07414
0.00803
0.04931
0.11050
-0.09763
-0.03357
0.04657
-0.09287
-0.03208
-0.02643
-0.03508
0.04018
0.09749
0.02517
0.02085
-0.02911
0.03964
0.03122
0.11010
0.02811
0.02379
-0.01490
-0.06552
0.02730
-0.03649
-0.10631
0.11322
0.07177
-0.02752
0.04713
-0.18623
0.01497
-0.00144
-0.03074
0.02084
0.06076
-0.05083
0.00157
-0.04543
0.01266
0.03167
0.00280
0.02213
0.05782
0.01033
-0.14924
-0.06954
-0.20890
0.04012
-0.01079
0.07628
-0.05954
-0.00482
-0.03043
-0.04143
0.02886
0.02374
-0.01782
-0.01248
-0.30640
0.03578
-0.02930
0.04103
-0.04059
0.05767
0.03969
0.04565
0.05363
0.05010
0.04308
0.00516
0.00033
0.01083
-0.05879
-0.05736
0.05742
-0.02360
0.11892
0.03376
0.00901
-0.00472
0.01894
-0.02944
0.00088
0.05135
-0.03628
-0.03854
-0.02427
0.05153
0.08612
-0.18376
0.01198
0.13170
-0.03448
-0.01961
-0.18179
0.00547
-0.02643
0.02496
0.05408
0.01935
0.03116
0.14812
-0.05673
-0.07036
0.01406
-0.07130
0.04422
-0.06473
-0.00835
-0.01053
-0.05701
0.03531
0.06509
0.03654
-0.00492
-0.16953
0.02182
-0.00932
-0.00569
-0.04610
-0.05775
-0.05580
0.08502
0.19182
0.05751
0.01221
0.04523
0.03910
-0.07443
-0.00823
-0.07174
0.03792
0.01140
-0.01896
-0.05318
0.06229
0.00277
-0.01623
0.01437
0.07220
0.00192
-0.03535
0.04404
0.06066
0.16808
-0.12990
-0.12873
-0.05865
0.00990
0.00466
-0.02349
-0.17535
0.08321
0.01091
0.04105
-0.03717
-0.04079
0.00427
0.03559
0.04471
-0.01701
0.02361
0.14384
0.00738
-0.01459
-0.02700
-0.08730
0.01090
0.01671
0.15385
-0.02151
0.00032
0.00631
-0.05517
0.05895
0.14892
0.00406
0.01280
-0.07214
-0.04386
0.01696
-0.08485
0.02300
0.05326
0.07356
0.01378
-0.05194
-0.02037
0.02822
0.04476
-0.02549
0.04836
0.03299
-0.01425
0.07874
-0.01931
0.08035
-0.03369
-0.00190
0.04549
-0.00310
-0.00210
0.00537
0.02137
-0.04224
-0.01410
-0.05736
0.04950
0.07608
-0.05844
-0.00135
0.07765
0.00966
0.00632
-0.14872
-0.05719
0.03304
-0.05485
-0.02498
0.04043
-0.00232
-0.03589
0.02044
0.02944
-0.01295
0.00527
0.02108
-0.07637
-0.09038
0.03150
-0.03660
0.01820
0.07381
-0.03660
0.04064
-0.20577
-0.02695
-0.05902
-0.01343
0.01493
-0.01738
-0.05673
-0.06821
-0.02632
0.00394
0.02149
-0.15255
-0.05031
-0.08402
0.03402
-0.11975
-0.22782
0.05043
-0.02169
0.00376
0.05287
-0.04172
-0.27146
-0.01591
-0.01416
0.00323
-0.07224
0.00899
-0.05328
-0.00841
-0.07071
0.07417
0.01877
0.00709
0.17922
-0.04415
0.07121
0.12763
0.02090
-0.03829
-0.19296
-0.02792
-0.03760
-0.02623
-0.05797
-0.01248
0.00544
-0.03459
0.04409
0.00708
-0.04031
-0.05388
-0.02720
0.05958
0.03186
-0.01306
-0.01794
0.04832
-0.01447
0.03027
0.04689
-0.05718
-0.05563
-0.02111
0.03683
-0.03254
0.03543
-0.02633
-0.02278
0.03701
-0.01388
0.02569
-0.05119
-0.01309
-0.04602
0.06054
-0.05953
0.04580
0.00346
0.03944
-0.02921
-0.04885
0.03557
-0.00173
0.00492
0.05796
0.04183
-0.05152
-0.04933
-0.00889
0.03550
-0.00083
-0.05095
0.01910
-0.01270
0.05253
0.00949
-0.04828
0.05946
-0.01336
0.04698
0.03681
0.00634
-0.02495
0.03083
-0.02787
-0.01486
0.01663
0.02553
0.00619
0.01412
0.01305
-0.03257
-0.03272
-0.01942
-0.03745
0.05347
-0.03708
-0.01632
-0.00666
-0.04808
-0.04234
-0.02105
0.04990
0.00006
-0.05739
-0.02238
0.03067
-0.00778
0.04057
-0.05663
-0.05180
-0.05725
-0.03572
0.04461
-0.03442
0.04794
0.02884
-0.05082
0.04071
-0.04732
0.04102
-0.00082
0.04903
-0.05483
0.01599
0.01068
-0.05643
-0.00444
-0.05121
0.01033
-0.00409
-0.05364
-0.03278
0.01832
-0.04541
-0.02172
-0.01281
-0.03454
-0.05619
0.05504
0.00325
-0.05815
-0.04662
-0.05662
0.04767
0.03165
0.07263
0.03465
0.11115
0.16652
0.02796
-0.21476
-0.03956
-0.02544
0.02586
-0.05531
-0.05420
0.01388
0.08446
0.05872
0.00500
0.06317
0.05049
0.03011
-0.02818
-0.04446
-0.08108
-0.06241
0.05072
-0.01181
-0.05886
-0.04922
-0.02691
-0.00037
0.02508
-0.01874
0.08256
-0.04427
0.11250
-0.10865
-0.01764
0.04728
0.05568
-0.00187
-0.04690
-0.01270
-0.01972
0.02423
-0.05326
0.05665
-0.02485
-0.05724
0.16982
0.03355
-0.04365
0.01512
0.02904
0.02189
0.19157
0.05115
0.04415
0.07040
0.02998
-0.03652
0.03054
-0.07079
-0.04450
-0.13955
-0.14143
-0.01629
-0.30143
-0.11820
0.00375
-0.04957
-0.02883
-0.00561
0.19465
-0.01703
0.00201
0.21245
0.01103
-0.05512
0.04401
-0.01266
-0.01574
0.05773
0.14491
-0.12690
-0.01367
-0.02279
-0.18550
-0.06001
0.04953
0.00609
-0.01944
0.08829
-0.03933
-0.02157
-0.03234
-0.14728
0.04897
-0.09191
0.00531
0.20255
-0.04258
-0.05920
0.02254
-0.00829
-0.15110
-0.05176
0.09968
0.05963
-0.05893
-0.03764
-0.01516
-0.07338
0.17472
0.03186
-0.04274
-0.04081
-0.05434
0.06026
0.02324
0.05633
0.02135
0.17173
0.07204
-0.04318
-0.01231
0.05627
-0.09088
-0.06998
-0.04059
0.08218
-0.04539
-0.02775
-0.04080
0.04511
-0.04754
-0.10208
-0.04365
0.05909
-0.12652
0.03616
-0.01252
0.02900
-0.06755
-0.15307
0.01042
0.03965
-0.02839
0.00299
0.03985
-0.04538
-0.01940
0.03525
-0.07839
0.05665
0.01377
0.12822
0.08885
0.03552
0.00633
-0.01565
-0.01781
-0.05353
-0.03199
0.05574
0.04914
0.02544
-0.01884
-0.04781
0.07146
0.15867
0.00077
0.06462
-0.02503
0.05111
0.00319
-0.03187
-0.03130
0.05911
0.04004
0.00180
-0.04226
0.09949
0.05493
-0.05058
0.16578
0.08632
0.06978
-0.04228
0.16121
0.04503
-0.00629
0.00777
0.05966
0.02940
0.05843
0.00295
-0.02320
-0.02020
-0.03132
-0.24315
-0.01489
0.04911
0.07108
0.21334
0.05038
0.05846
0.15609
-0.00913
-0.00100
0.04194
-0.12555
-0.06973
-0.03325
0.02711
0.00023
-0.07147
-0.04041
-0.08466
-0.03387
-0.15829
-0.04850
-0.11386
0.00405
0.02844
0.07852
0.06504
0.06602
-0.05267
0.01746
-0.11465
-0.03696
0.03858
-0.02688
0.02768
0.02934
-0.01420
-0.01942
0.06095
-0.01479
0.05351
0.02588
0.02637
0.01424
0.02133
-0.03298
0.00113
0.04681
-0.00856
0.02402
0.01039
-0.01757
-0.06068
0.00657
-0.02012
-0.02266
0.04562
-0.04004
-0.05027
0.03062
0.02999
-0.02581
-0.02219
-0.04561
-0.03834
-0.02028
-0.01498
0.03909
-0.04753
-0.03831
-0.03719
0.00105
0.05002
0.02433
0.00378
-0.06052
-0.05741
-0.02356
-0.03432
-0.04517
-0.01752
0.00721
0.03160
-0.00067
0.05332
0.04837
-0.02488
-0.03515
-0.03630
0.00809
-0.01368
0.05519
-0.05324
-0.02390
-0.02243
0.01872
-0.04303
0.04705
0.01634
0.00723
0.05224
0.05096
-0.01593
-0.00828
0.01243
-0.01373
-0.02815
0.02599
-0.02092
-0.01725
-0.05419
-0.05854
-0.00447
-0.00009
-0.00831
0.01420
0.04566
-0.03348
-0.02832
0.05684
0.02810
0.05657
0.02409
-0.02993
-0.00110
0.03524
0.04226
0.01446
-0.00648
0.03566
-0.03160
0.04837
-0.00461
-0.04427
0.05633
0.05083
0.02049
0.02864
0.00646
0.02825
0.00547
-0.01829
-0.03528
-0.01412
0.00056
-0.05825
0.05534
0.03125
0.04097
-0.03509
-0.04765
-0.05586
-0.02881
0.04480
-0.00370
0.00586
-0.02497
-0.00550
-0.03329
0.00572
-0.02252
0.06092
-0.20442
0.12617
0.05187
0.00764
0.11084
-0.12318
0.08339
0.04520
0.12375
0.04340
0.04096
-0.00916
0.05717
0.12208
0.04068
0.05137
0.03427
-0.11948
-0.05659
0.00423
0.06543
-0.01134
-0.02566
0.07153
0.04896
-0.00445
0.00047
-0.00055
0.02293
-0.00892
-0.00440
-0.07254
0.02416
-0.08079
0.18544
-0.23366
-0.04095
0.00394
-0.05719
0.00523
-0.05790
0.04324
-0.05897
0.00219
-0.02077
-0.00535
0.06117
0.01741
-0.07191
0.06010
-0.06648
-0.04813
0.00752
-0.05720
0.06031
0.05564
0.12763
0.02191
0.04530
-0.03100
0.00717
-0.01756
-0.08268
0.04028
-0.03028
0.08460
-0.04102
0.15243
0.01428
0.05207
0.02939
-0.05133
0.02489
0.03749
-0.01685
-0.04900
-0.04484
-0.02484
0.08476
-0.01503
0.00738
0.19713
0.18974
0.04146
0.02059
0.05287
-0.06051
-0.26756
-0.01105
-0.07240
-0.11939
-0.03422
0.00281
-0.03749
-0.00783
0.03955
-0.04095
-0.05765
-0.00476
-0.03380
-0.20141
0.04036
0.06048
-0.07001
-0.09237
0.04412
-0.03230
0.04044
-0.03668
0.00400
-0.04223
-0.08118
0.04433
0.03259
0.02887
-0.00428
0.02438
0.04240
-0.04977
-0.02511
0.03141
0.02025
-0.02003
0.05652
0.02945
0.01174
-0.00590
-0.05846
-0.02726
-0.02464
-0.03416
-0.03907
0.01788
-0.04117
0.02159
-0.03509
-0.05438
0.01441
0.05759
0.05987
0.02791
0.00380
0.03995
0.00506
0.03877
-0.03957
-0.01956
-0.05516
0.05082
0.02883
-0.01223
-0.02512
-0.00018
-0.05874
-0.02686
0.02558
-0.03936
-0.03534
0.04105
0.02999
-0.03458
-0.02357
-0.04494
0.05692
-0.02492
0.04544
0.03364
0.00929
-0.02250
0.02236
0.05094
-0.05393
0.01760
-0.03088
-0.05379
-0.00063
0.02397
0.02737
0.04725
0.00158
-0.03962
0.01211
0.02063
-0.00038
0.00252
0.02632
-0.00990
0.05233
0.05696
-0.00534
0.02464
0.03174
0.04735
-0.05199
0.04473
-0.02437
-0.03253
-0.04829
0.05493
0.05719
0.04955
0.02466
-0.00565
-0.05238
-0.05774
-0.03812
-0.03413
-0.02702
-0.03911
0.09150
-0.03810
0.04558
-0.03464
-0.03888
0.01774
-0.04951
-0.03522
0.02526
0.01136
-0.00853
0.03327
0.06130
0.01880
-0.02235
-0.01956
0.00672
-0.00517
0.00237
-0.01660
0.03992
0.00489
-0.06736
-0.06127
0.05591
-0.04664
0.00761
0.01630
0.03684
0.03738
-0.01408
0.04822
-0.01950
0.05613
0.00330
0.08392
-0.07085
-0.13591
0.05729
-0.04163
0.05723
0.06108
-0.00802
-0.04720
0.12106
-0.11527
-0.01061
0.04184
-0.16018
0.02230
0.05182
0.06449
-0.06897
-0.12510
-0.03239
-0.04137
0.02115
0.01918
-0.02145
-0.01743
0.02685
-0.01008
-0.10252
-0.01525
0.08416
0.07402
0.02319
0.04111
0.03461
0.03456
0.01372
0.04470
0.05421
-0.05198
0.00619
0.01837
-0.02007
-0.04423
-0.03559
0.15175
0.05557
0.00965
0.03635
0.04092
-0.00517
-0.03250
0.04267
0.15799
0.01569
0.02983
-0.02124
0.07518
-0.03343
-0.13243
-0.01160
0.06678
-0.11430
-0.07504
0.07155
0.04980
0.01164
0.02053
0.18870
-0.04207
0.00327
0.21276
0.01183
-0.01952
0.00163
-0.09587
-0.04987
-0.01672
0.16846
0.06438
-0.00944
-0.04333
0.07407
-0.03300
0.04303
-0.00851
-0.18094
0.10992
-0.05765
-0.02874
0.03936
-0.20786
-0.01729
0.02510
-0.04252
0.06745
0.01637
-0.14945
-0.03000
-0.01381
-0.12902
0.05414
-0.03536
-0.05306
0.02838
-0.10801
-0.01184
-0.06220
0.10763
0.05093
0.01885
0.04132
0.05085
0.00475
0.02528
0.02628
-0.03108
-0.09509
0.01715
0.05637
0.16963
0.20929
0.04321
0.06338
-0.04706
0.19172
0.04669
0.00476
0.04663
-0.04401
0.05200
0.06887
0.06129
-0.01231
0.19924
-0.06021
0.00414
-0.05207
0.00555
-0.07266
0.04611
0.03581
-0.04362
-0.03957
-0.04634
-0.05013
-0.02748
-0.05106
-0.00637
-0.04483
0.14879
0.13170
-0.22577
-0.00424
0.05225
-0.03838
0.04312
-0.01201
-0.04672
-0.04633
-0.03203
0.01511
0.00750
0.02064
-0.02953
0.07240
0.02160
-0.19783
0.01553
-0.05867
0.14860
0.05559
-0.05266
0.01263
-0.01508
-0.02634
-0.03247
-0.05541
-0.01953
0.05435
0.15141
0.12665
0.07141
0.02702
0.21843
0.00261
-0.00867
0.00730
-0.09030
-0.02955
-0.04781
0.05044
0.01662
-0.01719
0.03139
0.01670
-0.04256
-0.00926
0.06156
0.02753
-0.05160
-0.00719
0.06443
-0.03983
-0.01573
0.01165
0.07121
-0.11277
0.04213
0.05119
-0.00403
0.13602
-0.01360
-0.11198
-0.02856
-0.07175
-0.03693
-0.02944
0.02717
-0.00514
-0.06793
0.12227
0.18567
0.01087
-0.04976
0.06489
0.05464
-0.01203
-0.07126
-0.03534
-0.03923
0.06048
0.00132
0.04157
0.01084
0.05062
0.03726
0.19762
-0.14442
0.03789
0.17376
0.12923
-0.06024
-0.09849
-0.00545
0.07057
-0.03058
0.00053
0.03866
-0.03007
0.03375
0.07128
-0.03956
0.01113
0.07154
0.01886
0.00761
0.07122
-0.15476
0.01348
0.06354
0.04090
-0.04451
-0.04807
0.00938
-0.02388
-0.03579
-0.05281
-0.00966
0.03854
0.00048
0.05619
-0.02312
0.04271
0.01075
-0.00286
0.02060
0.05662
-0.03375
-0.01052
0.02238
-0.01816
-0.00381
0.00948
-0.03917
0.14130
0.05919
0.04035
0.04790
-0.00495
0.12975
-0.03180
-0.01051
0.11976
0.05126
0.05692
-0.01568
-0.06219
0.01307
-0.17302
0.24871
0.04667
-0.06505
-0.07206
0.03559
-0.01475
-0.03059
0.04990
-0.07081
-0.04848
0.01368
0.12448
-0.04884
0.00043
-0.04073
-0.18515
0.02338
-0.02695
0.12746
0.06514
-0.05880
0.03462
-0.05586
0.03819
0.06764
0.02269
0.06482
0.13006
-0.00562
0.04208
-0.04469
-0.03358
0.02681
0.05959
0.05343
-0.05763
-0.05389
-0.05800
0.01910
-0.06088
-0.09928
0.23399
-0.03854
-0.01192
-0.05362
-0.21487
-0.01639
0.10802
0.02308
-0.04302
-0.02086
0.04579
0.00496
0.00191
-0.01032
-0.05808
0.03495
0.07714
0.09999
0.01462
-0.05115
0.18991
-0.00640
-0.02904
0.00554
0.15476
-0.00652
-0.04487
0.00114
-0.04619
-0.07284
-0.03395
0.00799
0.02612
-0.08262
0.04191
0.00816
0.08692
-0.07228
-0.05571
-0.02377
0.01002
0.01658
-0.05363
-0.04710
0.02776
0.02966
-0.00710
-0.22232
-0.00105
0.06030
0.20878
0.11665
0.04513
-0.01698
0.03745
-0.03542
-0.03932
0.05156
0.00096
-0.05439
0.03975
-0.01784
-0.02915
0.00598
0.00389
-0.01044
-0.01428
0.05714
-0.00619
-0.01685
-0.03116
-0.03761
0.08535
-0.02191
0.03648
-0.03811
-0.08619
0.03111
-0.17392
0.20371
0.22994
-0.00076
-0.07968
0.20910
-0.01179
-0.04732
0.01084
0.05305
0.02158
0.05814
0.02584
-0.03249
-0.03895
0.03230
-0.22934
0.05728
0.04300
0.07190
0.15305
0.00365
-0.04658
0.11316
-0.05285
-0.00088
-0.00192
-0.06666
-0.06486
0.05072
0.05597
-0.04046
-0.06386
0.04253
-0.19194
0.00086
-0.07029
0.02671
-0.07122
-0.04706
-0.03862
-0.18887
0.12454
0.05541
0.05311
0.02823
-0.05588
-0.01351
0.11124
0.11147
0.04682
-0.01891
-0.04330
0.02537
0.05230
-0.03804
0.03959
-0.05081
0.00496
0.07272
-0.01039
0.05026
0.00782
0.07208
0.03241
-0.04223
-0.00998
0.02847
-0.02460
0.01610
-0.00664
-0.22299
0.05975
0.02605
-0.05479
-0.10404
0.04264
-0.04496
-0.04864
-0.04614
0.04616
-0.08053
-0.05794
-0.01074
-0.01540
-0.05223
-0.00960
0.05616
-0.03204
-0.07186
-0.03710
-0.05541
0.14361
-0.04303
0.02971
0.06033
-0.00315
-0.02433
0.01751
-0.05049
0.05138
-0.06055
0.04910
-0.02464
-0.03118
-0.14336
0.04604
-0.03281
0.03224
-0.04541
-0.02979
-0.17410
0.02245
0.00768
0.08799
0.05782
0.01271
-0.03473
0.22120
-0.03930
0.03533
0.17632
-0.06925
0.20907
0.09763
0.04162
0.00103
-0.02387
-0.05381
-0.00337
0.00728
-0.05700
-0.21420
-0.05368
-0.00757
0.05062
-0.03081
-0.05637
0.03989
-0.03708
0.21477
0.05598
0.05484
0.16375
-0.01844
-0.22119
0.05664
-0.03923
-0.07563
0.05216
-0.01897
-0.03048
0.02027
-0.05368
-0.03454
0.04963
-0.06639
-0.00628
-0.02050
-0.05475
-0.02529
0.12538
-0.11838
0.06756
0.04303
0.02660
0.07847
0.03255
0.26217
-0.00657
-0.03866
0.03466
0.09128
-0.01210
0.05830
-0.05762
-0.02497
-0.00503
0.21394
-0.12786
-0.04069
0.01711
0.00174
0.06816
-0.19249
-0.05475
-0.11347
-0.03879
-0.01137
-0.04538
-0.02823
-0.16630
0.10108
0.05831
-0.05921
0.04884
0.04155
0.00720
-0.07040
-0.24086
0.03964
0.02467
0.04765
0.03842
0.03091
-0.03597
0.03469
-0.02239
-0.02832
-0.06637
-0.05055
-0.07013
-0.17565
0.08277
0.00418
-0.00841
0.05419
0.02251
0.05419
0.02669
0.05976
0.02375
0.02378
-0.01163
0.05453
0.02122
-0.00813
0.05782
0.10632
0.00950
-0.00151
0.02188
-0.04595
-0.01255
0.06576
0.01831
-0.03796
-0.04719
0.08398
0.05450
-0.09306
-0.05512
-0.20954
-0.05526
-0.09647
-0.15438
-0.04911
0.04947
0.04124
0.13418
-0.00841
-0.05530
0.07192
0.05438
0.05536
-0.04460
-0.14308
-0.03335
-0.04817
0.02897
0.04288
0.03714
0.03357
-0.08938
0.02004
0.22763
-0.03273
-0.08408
0.21433
0.02609
0.02911
-0.05885
-0.21341
-0.05176
0.17174
0.00397
0.07314
-0.02650
0.06554
-0.01024
0.04510
0.09978
-0.09060
-0.01848
-0.03177
0.00482
-0.07134
0.00730
0.07990
0.11761
-0.02838
-0.01264
-0.05778
-0.05297
-0.04582
-0.05699
-0.00418
0.02873
0.01732
0.12688
0.01411
-0.05955
-0.03976
-0.05649
-0.00222
0.03936
0.04414
-0.02052
-0.02514
0.00208
-0.02475
0.06522
-0.03355
0.05537
0.03871
-0.05710
-0.02241
-0.00335
-0.08077
-0.03357
-0.07011
-0.05779
-0.01958
0.00389
0.05157
0.04907
-0.01699
-0.04871
0.00450
0.01368
0.03006
0.04266
0.08617
-0.02239
-0.00589
-0.01740
-0.04710
0.05583
-0.00270
-0.01623
0.00880
-0.03623
0.06120
0.01733
-0.00055
0.07177
-0.01089
-0.03232
0.04530
-0.03904
0.05038
-0.09224
0.03138
-0.03066
-0.00055
0.05980
0.03182
0.05587
-0.01488
-0.04529
-0.05281
-0.09756
0.04598
-0.09622
-0.08429
0.07253
-0.04791
0.05950
0.03703
0.03737
0.05829
0.06081
-0.01868
-0.01914
0.02465
0.04463
0.02168
0.03790
-0.01655
0.11077
0.10591
0.01133
0.03766
0.11254
-0.01673
-0.05816
0.02117
-0.02044
-0.03215
-0.01348
0.00646
-0.05932
0.00903
0.02225
-0.13907
-0.03486
0.06906
0.04231
-0.01904
-0.01455
0.00592
0.03270
-0.06264
-0.00360
0.03460
-0.00868
0.02284
0.02959
-0.05930
0.00626
0.03435
-0.04162
-0.13241
0.02976
-0.04981
0.01270
0.01962
0.03025
-0.02653
-0.02222
-0.05161
0.05470
-0.05574
0.02337
0.04401
0.04679
-0.01661
-0.05863
-0.02206
0.02360
-0.03669
0.01400
-0.04148
-0.04803
-0.01090
-0.01763
-0.01914
-0.00642
-0.03142
-0.01747
0.03098
-0.05221
0.01039
0.01097
-0.03088
0.00780
0.01468
0.05603
-0.02747
0.03443
0.04628
-0.03950
-0.03543
-0.00312
-0.00144
-0.02259
-0.03359
-0.02408
0.02436
0.02643
-0.02200
0.01404
0.03733
-0.00652
0.04551
0.00351
-0.02551
0.03781
0.03658
0.03041
0.00447
-0.05369
-0.04606
0.02105
-0.02183
-0.05185
-0.02881
0.00780
0.01157
-0.02204
0.03246
0.01048
-0.06131
-0.00126
-0.05570
-0.03866
-0.00956
0.00843
-0.03724
-0.03352
-0.04474
0.03085
-0.05880
0.02754
0.01491
-0.04246
0.04793
-0.00858
0.05625
0.05099
0.01063
0.03580
0.00296
-0.05552
-0.02291
-0.04503
0.05740
-0.05144
0.04111
0.00712
0.04353
-0.04251
-0.06147
-0.04348
0.04472
0.04904
-0.03194
-0.04605
0.00369
-0.04248
-0.00630
-0.02460
-0.04283
0.01422
-0.02304
-0.03252
0.01439
0.02379
0.00646
-0.00919
-0.01446
-0.05128
0.02697
-0.02560
0.01958
0.00014
0.03121
-0.02564
-0.11697
0.09137
-0.05341
0.06327
0.22094
-0.07817
-0.04652
-0.05312
0.07134
-0.01405
-0.00712
0.02653
0.01796
0.36832
-0.19033
-0.02577
-0.05379
0.11401
-0.02971
-0.00934
0.04343
-0.00080
-0.08567
0.21375
-0.04974
0.03199
-0.04758
-0.05267
-0.01921
-0.04271
-0.00568
0.08761
-0.02285
0.21300
0.02363
0.00268
0.02124
-0.03166
0.02394
-0.00566
0.05191
-0.01806
0.01569
-0.05123
-0.05183
0.02623
-0.01550
0.13741
0.04761
-0.04672
-0.06414
0.05837
0.01146
0.17052
0.03409
0.00240
0.06983
0.05015
0.02022
0.02493
-0.04328
0.00138
-0.05938
-0.03300
0.16041
-0.06045
-0.11517
0.12363
0.00735
-0.03475
0.04964
0.05597
-0.02950
-0.01494
0.20186
-0.00057
0.05090
0.02237
0.05098
0.02864
-0.02508
0.23212
-0.14086
0.05873
0.05416
0.00856
0.02414
0.08874
-0.03737
-0.17416
-0.03341
-0.05514
-0.02189
-0.01043
-0.14424
-0.00314
-0.18272
-0.04459
0.17863
0.03168
-0.07160
0.04032
0.05880
-0.21431
0.07354
0.14029
0.02952
0.06087
0.04247
0.03115
-0.13299
0.13541
-0.03647
-0.03745
-0.08096
0.02241
-0.04261
0.03353
-0.02821
-0.05562
-0.00783
0.04718
0.04251
0.03634
-0.00069
-0.05931
-0.03956
0.01241
-0.04962
-0.01914
0.04172
-0.00577
-0.03582
0.03144
-0.02371
-0.04898
-0.02464
0.04545
-0.01976
-0.03901
0.03518
0.04912
0.05238
-0.04512
0.05944
0.05333
0.02605
0.02882
0.05964
0.06137
0.03626
0.03479
0.01613
-0.04656
0.03019
0.01302
-0.05097
-0.00600
-0.02716
0.03944
-0.00913
0.03271
0.00006
-0.02199
0.03692
-0.01634
-0.05142
-0.04756
-0.04658
-0.03516
-0.02372
-0.05312
-0.04331
0.02259
-0.02959
-0.03939
-0.01328
-0.04988
0.00056
0.03137
-0.05009
0.00264
0.03434
-0.03423
0.05062
-0.05375
0.03190
-0.04698
0.04942
0.03644
0.04594
0.05513
0.00877
0.05197
-0.02369
-0.04714
0.06087
-0.01948
-0.01671
0.01426
-0.01613
-0.05457
-0.01713
0.01952
0.00484
0.00572
-0.04630
0.04334
-0.02107
-0.05327
0.03693
-0.04178
0.04878
0.03854
0.02978
0.02925
0.00025
0.01174
-0.05234
0.03747
-0.03573
0.00278
-0.03495
0.03987
0.00134
-0.05179
-0.01855
0.03764
-0.04805
0.03279
-0.05147
-0.05784
-0.03339
-0.02064
0.01382
0.03295
-0.00908
-0.00333
0.03279
0.01279
0.21153
-0.03487
-0.05495
0.10971
0.03284
0.05065
-0.12401
-0.00198
-0.12239
0.01923
-0.03683
0.03292
-0.03325
-0.08346
-0.02459
0.02374
-0.03339
0.07270
-0.01797
-0.01782
-0.06539
0.03212
-0.10722
-0.09063
0.05740
-0.03854
-0.05158
0.03846
-0.05168
0.01557
-0.03799
0.06763
-0.01154
0.00786
0.07096
0.11489
-0.05621
0.03206
-0.00547
0.00897
-0.03883
0.02519
-0.01957
-0.00335
0.05226
-0.03347
-0.04682
-0.06759
0.27263
0.01274
0.05909
-0.03815
-0.02526
0.07373
0.04553
0.04568
-0.08408
0.04162
0.06002
-0.05639
0.07369
-0.00673
0.13985
-0.00878
0.10005
0.08188
0.06140
0.07384
0.01861
-0.04390
0.03208
-0.04531
-0.03009
-0.03666
0.02922
0.01239
-0.05864
-0.00005
-0.00068
-0.05733
-0.03138
-0.21095
0.03967
0.05686
-0.01765
-0.01352
-0.04516
-0.04702
-0.01555
0.04596
0.00916
-0.00966
-0.03240
0.04624
0.05537
-0.04488
-0.18282
0.02745
-0.08094
0.00821
0.11685
-0.03484
0.01571
0.08412
0.19156
0.04402
0.05421
0.05201
0.04419
-0.00845
0.14320
0.06654
-0.02808
0.03718
-0.07083
0.03561
0.04805
-0.04780
0.00063
-0.02728
-0.03317
0.11991
0.00398
0.11365
0.08712
-0.07150
-0.08770
0.00231
0.22453
0.01825
-0.05469
0.02398
-0.03440
0.04342
0.25097
-0.03365
-0.01102
-0.02606
0.00071
-0.00158
-0.21312
-0.01679
0.07024
0.13866
-0.03259
0.00748
0.04796
0.03375
-0.03231
0.05718
0.02695
0.12134
-0.02557
0.00520
-0.05059
-0.13694
-0.04489
-0.04595
0.05395
-0.02818
-0.03648
0.03867
0.01371
0.03729
0.04203
0.03864
0.04167
0.12339
-0.00880
-0.04150
-0.03216
-0.03847
0.02511
-0.05036
-0.03286
0.04666
-0.06941
0.01248
0.04072
-0.04443
0.16842
0.04379
-0.06431
-0.05933
-0.18627
-0.12054
-0.06072
0.07040
0.04859
-0.00169
-0.05834
0.00950
0.00706
0.04697
-0.10871
-0.03499
0.02151
-0.03525
0.09265
0.02546
-0.05959
-0.04438
-0.05963
-0.01198
-0.03816
-0.13368
-0.01889
-0.04930
-0.00093
0.07063
-0.15585
0.02276
-0.02671
-0.03736
0.05983
-0.00559
-0.08273
-0.01930
0.12728
0.05970
-0.14820
-0.05342
-0.01993
0.05289
-0.08629
0.02004
-0.05365
0.01088
0.11304
0.04094
-0.08486
0.07108
0.03347
-0.05726
-0.09689
-0.01868
0.00407
-0.03934
-0.00900
-0.03430
-0.06936
0.19467
0.05420
0.07102
0.11383
0.08352
-0.07954
0.00770
-0.03559
0.03002
0.04445
0.01527
-0.01744
-0.06903
-0.04229
-0.00428
-0.05599
-0.12452
0.04591
0.05306
-0.13307
-0.02738
-0.00186
-0.08833
0.03463
0.04447
0.05109
-0.03974
0.00917
-0.03522
-0.00320
0.03940
0.00092
0.13260
0.16965
-0.12765
0.01879
-0.00037
0.02058
-0.02094
-0.00934
0.04372
0.03313
0.01550
-0.00503
-0.01349
-0.02998
-0.09167
0.11415
0.00946
-0.11238
0.00868
0.00675
0.01621
0.00146
0.02824
0.06952
0.02132
-0.04903
0.05313
0.16203
0.04555
0.04657
-0.16361
0.06003
-0.13678
-0.07137
-0.04076
-0.03949
0.04747
0.03367
-0.01238
0.04708
-0.01264
0.05815
-0.01601
0.06015
-0.05954
-0.02574
-0.02687
0.05675
-0.05184
0.03662
0.04840
-0.05098
0.16150
0.01693
-0.06566
-0.04681
-0.03810
0.06867
-0.03627
0.05049
0.05666
-0.12689
0.01768
-0.07017
0.04324
0.06846
0.01078
0.00017
0.04500
0.03075
0.01738
-0.08800
0.11091
0.02983
-0.01142
0.06547
0.03583
0.08487
0.06799
-0.05492
-0.02986
0.07244
0.04485
0.00167
0.03432
0.04182
-0.03505
0.01232
0.01598
-0.06116
-0.02649
-0.04092
-0.03378
-0.05869
0.01205
-0.05493
0.00061
0.00546
-0.01157
-0.04897
-0.05418
0.01160
0.03772
-0.04172
0.03915
0.00270
-0.01211
-0.04712
0.04188
-0.01967
0.04824
-0.01759
-0.01187
-0.05425
0.03232
-0.01056
-0.05501
0.02010
0.04715
-0.00530
-0.04189
-0.03337
0.02177
-0.05421
-0.03731
0.03141
-0.03089
0.02171
0.01547
0.01292
-0.04157
0.03756
0.02253
-0.02852
-0.05709
0.01105
0.04178
-0.00261
0.03986
0.02902
-0.02088
-0.02599
-0.03678
0.02885
-0.02757
0.01448
0.02221
0.00587
-0.02422
-0.01996
-0.03860
0.01988
0.04140
-0.02803
-0.02784
-0.03054
-0.05519
0.04177
-0.05312
-0.02427
0.01177
-0.02576
-0.00646
-0.04735
0.01352
0.03172
-0.00263
0.01678
0.03391
-0.05985
-0.00271
-0.03961
-0.00346
0.04196
-0.02498
0.06034
-0.02294
-0.06218
-0.05167
0.03445
-0.05927
0.05561
-0.02033
0.05597
0.01686
0.01379
-0.00744
-0.03192
0.00423
0.03372
-0.01038
-0.05675
-0.00508
0.04174
-0.04351
0.02247
0.00392
0.00459
-0.00536
0.01277
-0.05488
0.03583
-0.00778
-0.00073
0.02246
-0.01980
0.04846
-0.04651
0.06571
0.04895
0.01008
0.13561
0.02226
0.01318
-0.05919
0.09583
-0.05011
0.04491
0.02316
0.02402
0.25693
-0.17694
-0.01100
-0.00772
0.11173
0.01497
0.04323
0.06656
-0.07053
-0.18606
-0.07218
0.04175
-0.03928
-0.00804
0.00925
0.01569
-0.00525
-0.01012
-0.08975
0.01883
0.06767
0.09185
-0.04327
-0.04429
-0.04198
-0.00046
-0.04783
0.04205
-0.04883
0.00684
0.00379
0.00667
0.00761
-0.00847
0.03488
0.09600
-0.00174
-0.07835
-0.02222
-0.02587
0.22957
0.03848
-0.01500
0.04879
0.04402
0.00694
0.04820
-0.09702
-0.04420
-0.02724
-0.01846
0.29819
-0.00584
-0.04341
0.14950
-0.02200
0.00733
0.04599
-0.04849
-0.04058
0.02712
0.18133
-0.04692
0.05877
0.00213
-0.04808
-0.04223
0.02800
0.26534
0.03095
-0.00762
-0.03283
0.21186
0.02607
0.07207
0.04141
0.02355
-0.04491
-0.01354
0.02955
-0.03784
-0.05799
-0.00906
0.02088
-0.04793
0.04742
-0.01032
0.07132
-0.01763
-0.04741
-0.10819
0.15558
0.11426
0.01120
0.05710
-0.06463
-0.03035
-0.10883
-0.04102
-0.03944
-0.03550
-0.06718
-0.04750
-0.06072
-0.00172
0.06075
-0.02972
0.03408
0.21441
-0.03021
-0.01538
0.07693
-0.01562
-0.01133
0.03893
0.10564
0.05481
0.05438
0.03756
0.01239
0.01455
-0.02864
0.00975
0.03502
-0.03096
0.05379
-0.01624
-0.06669
0.00280
-0.02682
-0.07012
-0.00600
0.00270
-0.03484
-0.02258
0.05628
0.01854
0.01262
-0.12022
0.03421
-0.03637
0.14120
-0.03436
-0.00794
0.04282
0.01323
0.03976
0.03385
-0.01883
0.05982
-0.03395
0.00384
0.05225
-0.04293
0.03788
-0.11581
-0.03374
-0.03100
-0.02240
0.02694
0.01295
0.04403
-0.05373
-0.07015
0.03922
-0.02922
-0.05843
-0.03814
-0.03181
0.04813
0.07045
-0.01906
-0.00221
0.07443
0.08357
-0.05833
0.02955
0.01514
-0.06365
0.00170
-0.01786
-0.19345
0.04946
0.03164
-0.03504
-0.07961
-0.00226
0.02645
0.05053
0.08172
0.02247
-0.02181
0.06415
-0.05322
-0.07443
0.01880
0.10583
-0.07251
-0.02851
0.01713
0.05100
0.10969
0.00744
-0.08931
-0.01879
-0.09057
0.00849
0.05064
-0.03046
0.05062
-0.00044
0.03773
0.08106
-0.05594
0.01441
0.04501
0.02390
0.05545
0.01206
0.04684
0.02631
-0.14374
-0.02064
-0.05761
-0.02210
-0.05453
-0.01405
-0.03885
-0.06095
-0.05681
0.03078
0.06854
0.15095
0.02942
0.04780
-0.20316
-0.01673
-0.06009
0.02034
-0.00130
-0.11028
0.08772
0.02372
0.05042
0.06426
0.00304
0.04319
0.00595
-0.03048
0.06371
0.01734
-0.05007
-0.00369
0.01985
-0.02654
-0.05637
-0.03313
-0.03608
0.03909
0.04862
0.14731
0.07070
-0.04930
0.04529
0.03732
0.02492
0.05609
-0.01393
0.01101
0.01312
0.01034
-0.00759
0.04496
0.00897
-0.19445
0.07236
0.04995
-0.10959
-0.01807
0.03011
-0.00891
-0.04123
0.02685
0.07818
0.04787
-0.05990
0.00496
0.20349
-0.01121
-0.05740
-0.07757
-0.07334
-0.09080
0.03282
-0.03710
0.00982
0.02698
-0.02269
0.06019
-0.01964
-0.01015
0.06739
0.02740
0.02833
-0.00460
0.10911
-0.03699
0.04170
-0.06619
-0.07169
-0.02950
0.00954
-0.02999
0.04252
-0.03081
-0.03693
-0.02805
0.18802
0.02795
0.02871
0.05838
-0.11203
-0.00392
0.21166
0.03945
0.19219
-0.02435
0.01887
0.02435
-0.05066
-0.01918
-0.19881
0.12471
0.02475
0.00725
-0.02963
0.01808
0.18467
-0.00782
0.01848
-0.01833
0.17059
0.05275
-0.00562
0.00012
0.02005
-0.04282
-0.14239
0.07289
0.02886
0.04666
0.09284
-0.16767
0.11544
-0.05858
0.23414
-0.05502
0.03819
0.02642
-0.00847
0.10513
0.10170
-0.02742
-0.02283
-0.12341
-0.05715
0.01007
0.02040
-0.11770
-0.03629
0.08723
-0.00061
-0.00901
0.02474
-0.04248
0.00707
0.01566
0.05226
-0.05557
0.00623
-0.07109
-0.06935
-0.26110
0.05237
-0.00766
-0.01425
-0.05193
-0.04875
-0.04954
-0.00968
0.05356
-0.05264
-0.03809
0.02882
0.11528
-0.20099
-0.01624
-0.12527
-0.01034
0.04733
0.00517
-0.05361
0.04024
-0.02628
0.04732
0.06047
0.02702
0.00695
-0.03479
-0.12607
0.08114
-0.08390
-0.04290
-0.04291
0.11201
0.00981
0.05128
-0.05768
-0.13982
-0.03984
-0.04308
0.03572
-0.04599
0.01106
0.05037
-0.07236
-0.03505
0.04989
0.06311
0.08044
-0.04580
-0.04489
-0.05119
0.05111
-0.07091
0.00545
-0.01409
-0.12319
0.00960
-0.02762
-0.00374
0.06152
0.03001
0.07770
0.06049
0.05817
0.00401
-0.15844
-0.02200
0.02024
-0.01971
-0.04624
0.01213
0.05681
-0.03550
-0.06016
-0.00770
-0.16075
-0.05121
-0.03941
0.03055
0.06239
-0.03224
0.02108
-0.03168
0.01196
-0.04559
0.05698
-0.15330
0.02085
-0.16172
-0.08343
-0.07065
0.07767
-0.05303
-0.06541
0.05154
0.00178
0.00223
0.00921
0.12004
-0.12288
-0.01805
0.03822
0.02155
0.00688
-0.02004
0.27783
0.07408
-0.06226
-0.06859
-0.01390
0.02037
0.00748
0.04984
-0.03873
0.05711
-0.05414
-0.04638
0.01428
0.00500
-0.09052
0.04307
0.02646
-0.05284
-0.00954
0.02928
-0.00303
-0.00705
-0.00713
-0.00075
0.00111
0.02841
-0.04420
0.12548
-0.04917
0.04574
0.19625
-0.00869
-0.05651
0.03608
0.05078
-0.04579
0.03578
-0.04767
0.04520
-0.02224
0.04905
-0.04260
0.05807
-0.05168
0.20766
0.14623
-0.05155
-0.07278
-0.01238
0.03733
0.06011
-0.07154
0.01583
0.04417
0.16749
-0.00193
-0.03746
-0.05877
-0.06675
-0.00557
0.00207
0.19924
0.18046
-0.02691
0.03059
0.20694
0.03053
0.15531
0.00588
-0.05718
0.15651
0.00745
0.02864
0.01728
-0.12379
0.01128
0.15683
0.01006
0.03347
0.01147
-0.07728
0.05346
0.00270
0.24073
-0.00086
-0.12086
-0.05235
0.05001
-0.01399
0.01146
-0.23053
-0.08173
0.01361
0.03735
0.13920
-0.04535
-0.03426
-0.01398
-0.02122
0.03840
0.05509
0.06411
0.04696
-0.08857
0.04800
-0.06898
0.09927
0.01622
0.09977
-0.03408
-0.02812
-0.01022
0.00526
-0.20787
0.13932
0.01550
-0.03617
-0.11330
0.00343
0.00040
-0.06192
-0.04287
0.07568
-0.07137
0.00940
-0.04889
0.00379
-0.04670
-0.05883
-0.03292
-0.01726
-0.02169
0.03769
-0.03350
0.10417
0.02782
0.05540
0.05334
-0.01958
0.05459
-0.03660
-0.03581
-0.05378
0.05107
0.05728
-0.05346
0.01511
-0.06437
-0.05592
0.06043
-0.04735
-0.06015
0.05638
-0.11334
0.01803
-0.04347
0.05561
-0.04286
0.01422
0.00618
0.10944
-0.04636
0.00674
0.22405
-0.06920
0.24085
0.10920
0.04053
-0.04660
0.00078
0.04050
-0.09438
0.03747
-0.03808
-0.20950
0.02659
0.04712
0.04137
-0.09713
-0.04126
0.04363
0.01255
0.19474
0.01668
-0.01499
0.06987
-0.02951
-0.18646
0.02294
0.01423
-0.10611
-0.05452
0.04197
0.02543
0.11071
-0.01001
0.02576
-0.01068
-0.17783
0.02720
-0.01175
0.01172
-0.04440
0.14270
0.06497
-0.08580
0.05191
0.00379
0.05201
-0.05618
0.18018
-0.01841
0.05219
-0.02324
0.06185
-0.05536
0.04906
0.03850
-0.03713
-0.05527
0.09362
0.14698
0.04918
0.10972
0.07197
0.01224
-0.02675
0.03597
0.01871
0.01872
0.01029
0.00435
0.00427
-0.04359
-0.07183
0.05743
-0.02556
-0.00144
0.04914
0.02723
-0.17586
-0.01552
-0.04890
-0.11422
-0.02935
-0.00689
0.02476
-0.03601
0.00767
0.04829
0.02955
-0.04478
0.01298
0.06973
0.15585
0.01446
0.05429
-0.01780
-0.01448
-0.05355
-0.02361
0.03483
-0.05806
0.05412
-0.01502
-0.02792
-0.02528
0.05071
0.00316
0.04939
-0.09216
-0.01030
0.02420
0.02630
0.04753
0.05698
-0.03348
-0.02156
0.00166
-0.04049
-0.05776
-0.02149
-0.00487
-0.03063
0.06786
-0.07141
0.05490
0.19994
-0.00301
0.05801
-0.01074
-0.01332
-0.04104
-0.03858
-0.07174
-0.03034
0.02698
0.01029
-0.05559
-0.03378
0.02905
0.00585
0.07407
0.01743
-0.02842
0.09163
0.05706
-0.04186
0.03086
0.16789
-0.07664
-0.00231
-0.05623
-0.01118
0.10775
-0.04738
-0.21337
-0.05979
-0.03071
-0.00834
0.00699
0.03751
0.02075
0.06579
0.12994
0.10136
0.01597
0.05564
0.04169
0.05920
0.13622
0.07067
-0.01876
0.02766
-0.12669
-0.05725
0.00277
-0.00048
0.01384
0.01685
-0.03557
-0.06921
0.00619
0.21074
0.06178
0.13134
0.06126
-0.03223
-0.07635
0.00512
-0.02689
0.00906
0.02897
-0.21431
0.21168
0.05773
0.02627
0.12138
-0.02252
-0.03669
0.06526
0.11237
-0.01720
0.06437
-0.03599
-0.00134
0.01199
0.01048
-0.04622
0.03996
-0.01333
0.20353
0.01809
0.00952
0.03672
-0.14509
0.03198
-0.01505
-0.00447
-0.04368
-0.03705
0.06130
-0.01548
-0.01501
-0.03885
-0.01996
-0.02496
-0.07468
0.01811
0.00077
-0.07068
0.01501
-0.05924
0.05986
-0.00275
0.03833
-0.02128
0.04008
-0.04324
-0.05292
0.13904
-0.04999
0.17490
-0.06543
-0.06961
0.12640
0.15180
-0.00334
0.05003
-0.01594
0.00481
-0.18254
-0.02530
0.03312
0.11813
0.00995
-0.05110
-0.03137
0.14002
0.05078
0.03151
-0.08290
-0.03386
0.00179
-0.05407
-0.03089
0.05147
-0.03496
-0.00039
0.19118
0.14552
0.00949
-0.01553
0.03428
0.11925
-0.04466
0.19592
0.02098
0.00456
0.00354
0.03253
-0.05560
0.00835
0.15513
-0.17049
0.15551
-0.04595
-0.05551
-0.04174
-0.03480
0.16001
-0.08614
-0.02042
-0.06110
0.12932
-0.00690
-0.02437
0.04694
-0.05323
0.05458
-0.10182
-0.09962
-0.00195
-0.07336
0.07193
-0.07255
0.09293
0.02695
0.12231
-0.02534
-0.00245
0.00430
-0.01939
0.25192
0.09242
0.04609
-0.02777
0.06668
0.00351
0.00763
0.18453
0.13781
0.06023
0.34980
-0.00238
0.05512
0.01941
0.01664
0.03943
0.03130
0.04089
0.10849
0.04136
0.07174
-0.18463
-0.02241
-0.02345
0.01616
-0.02402
-0.05846
0.04429
-0.00095
-0.01855
-0.04147
0.04518
0.05382
0.05916
0.16056
-0.07879
-0.01436
0.13719
-0.00692
0.04394
0.00612
-0.02589
0.05604
-0.01458
-0.05140
-0.01348
-0.01430
-0.09673
0.00305
-0.04492
0.12720
-0.03300
0.17637
0.00309
0.06479
0.01636
0.05062
0.04317
-0.06769
0.05471
0.00676
0.06258
0.03598
-0.02409
-0.02012
0.16665
-0.00692
-0.01737
0.06990
-0.12869
-0.03918
0.05208
-0.15091
0.05169
0.05917
0.00723
-0.00627
0.07069
-0.05991
0.02666
0.02558
0.05244
-0.00306
-0.00986
0.02084
0.18358
0.01449
-0.05504
0.00481
-0.02020
-0.10325
0.03110
-0.09028
-0.02678
-0.06048
0.02810
0.01234
-0.14586
-0.08136
0.05044
-0.02073
0.07629
-0.03894
0.01900
0.01235
0.04215
-0.03183
-0.09108
-0.02107
-0.01291
-0.10551
-0.17051
0.18520
0.06474
0.00820
-0.14944
-0.01715
-0.01626
-0.00822
0.04620
-0.04717
0.01670
-0.03032
0.01752
0.13636
0.04015
0.04337
0.01975
0.09311
0.20687
0.08231
0.00878
-0.00415
-0.02600
0.04720
-0.01000
0.05965
0.02256
0.02807
0.04317
0.11313
-0.07235
0.21537
-0.03185
0.04236
0.00321
-0.02501
-0.04742
-0.03963
0.01468
-0.00088
0.04998
-0.04213
-0.01274
0.03575
-0.01059
0.04511
0.01412
-0.04654
0.00550
-0.05442
-0.05466
-0.05302
-0.00300
0.03490
-0.02377
0.06099
-0.02419
-0.04702
0.07158
-0.11878
-0.07098
-0.02679
0.03898
-0.14032
-0.05737
-0.04441
0.03435
0.13658
0.01392
-0.04045
0.04719
0.04642
-0.04903
0.01310
0.15511
-0.01166
-0.00474
-0.05074
-0.17187
0.02587
0.05896
-0.01508
-0.00946
0.10893
-0.01743
-0.01437
0.03790
-0.01706
-0.00379
-0.05290
-0.08734
-0.02674
-0.00651
0.01794
0.13767
-0.04167
0.14507
0.02802
-0.03620
-0.07434
0.03093
-0.08697
0.01930
0.04465
0.19840
0.04071
0.19455
0.05592
-0.00447
-0.05641
0.09527
-0.00949
-0.01977
0.02819
0.05082
0.03684
0.03906
0.02460
0.00429
-0.00025
-0.01962
0.04317
0.02331
-0.00203
-0.00237
-0.04684
-0.04187
0.00896
0.03625
0.07176
-0.02322
0.04935
0.06058
0.00454
0.00177
-0.00575
-0.01429
0.03431
-0.02851
-0.10991
-0.02891
-0.00325
0.05435
-0.00595
0.05992
-0.04153
-0.00475
0.01055
-0.01921
-0.09402
-0.09244
-0.02070
-0.02886
-0.03623
-0.00691
0.00812
-0.00420
0.01637
-0.03514
0.04972
0.05809
0.01054
0.05738
0.12031
-0.15779
0.01381
0.05019
-0.00244
-0.00122
0.05885
-0.01870
0.05085
-0.04993
-0.05004
0.04625
-0.01690
-0.05657
-0.06034
-0.01151
-0.14736
-0.05202
-0.05021
0.11305
0.00207
-0.00954
-0.04353
-0.00438
0.03143
0.04314
-0.05256
-0.05411
0.03638
0.01064
-0.01148
0.05232
-0.04153
-0.04132
0.06046
0.10890
-0.00057
0.04370
0.13933
-0.01324
0.01536
-0.01056
0.02814
0.07970
0.03894
-0.03041
0.01023
0.00060
0.01961
0.12474
0.00951
0.09249
-0.02565
0.07422
0.00714
-0.05910
0.05118
-0.01909
-0.03419
-0.06124
-0.00245
0.02766
-0.01555
-0.03177
0.04347
0.00360
0.05509
-0.00431
-0.03068
-0.00311
-0.05786
0.01212
0.05846
0.09606
0.02042
-0.02373
-0.00446
-0.05775
-0.01367
-0.13016
0.05328
-0.08297
-0.05580
0.05109
0.01057
-0.02135
0.04348
-0.00729
-0.03417
0.03945
0.00581
0.04987
-0.01733
-0.10464
-0.08145
0.11817
-0.06817
0.02395
0.01194
0.04196
0.05597
-0.00866
-0.00438
-0.00308
-0.02510
0.00613
0.13228
0.01786
0.09537
-0.03462
-0.02100
0.03386
-0.01241
0.01593
-0.00581
-0.02959
-0.00205
0.03500
-0.00930
-0.04832
0.08987
-0.02363
0.02477
0.06037
-0.04706
0.00537
-0.06708
-0.01864
-0.04132
0.10394
0.01296
-0.01852
0.00052
0.07129
-0.05803
-0.01374
-0.04412
-0.06611
-0.04595
-0.14330
-0.07590
-0.01691
-0.01922
0.03638
0.27012
-0.01162
-0.06013
-0.04350
0.00602
0.01511
-0.00617
-0.11008
-0.05299
0.06110
0.03192
0.02384
-0.04751
0.04969
-0.02360
-0.05214
0.05772
0.02103
-0.12198
-0.00297
0.03523
0.05540
0.01082
-0.17787
-0.03173
-0.04607
-0.01937
0.09155
-0.03753
-0.06924
-0.01231
0.05802
-0.02608
-0.05732
-0.03896
-0.03847
0.05324
0.11989
0.05506
0.01847
0.20968
-0.02798
-0.00952
-0.02741
0.02208
0.03953
0.00468
0.02389
-0.05951
-0.13869
-0.18730
-0.05172
0.07717
0.02118
0.11604
0.09305
0.03869
-0.12211
-0.04189
-0.02316
0.01499
0.05622
0.05781
0.06931
0.00056
0.05501
0.13570
-0.05101
-0.05017
0.07140
0.07159
-0.00169
0.10164
0.05156
0.03868
0.06141
-0.03379
0.02289
0.04224
0.02544
0.02053
-0.02759
0.02016
0.00988
-0.20430
-0.02567
0.05342
-0.00308
0.05237
0.02456
0.01153
0.01814
-0.04455
-0.02645
-0.02283
0.02603
-0.10202
0.05327
-0.05113
-0.07238
-0.00541
0.00966
0.07473
-0.02061
0.05814
0.05812
-0.01442
-0.02650
-0.02543
0.01260
-0.06025
0.02524
0.06957
-0.02182
0.06894
0.07148
0.04880
-0.00523
-0.04386
-0.01665
-0.07216
-0.01206
-0.05793
0.17686
-0.00411
0.05774
0.01236
0.13065
0.01980
0.02501
0.06872
-0.03737
0.03111
0.00252
-0.07594
0.03210
-0.11853
-0.03077
0.07998
0.09821
0.00212
0.04817
0.00381
0.01509
0.02527
0.29979
-0.04027
0.08801
0.02615
0.07725
-0.05870
0.05654
-0.02074
-0.06722
0.07127
0.05518
0.04769
-0.05757
0.03529
-0.00109
-0.04550
-0.01541
-0.03143
0.29281
-0.05874
0.01056
0.01272
-0.06124
-0.01513
0.00193
-0.00404
-0.02713
-0.00268
-0.06251
0.06292
0.05677
-0.00551
0.07199
0.03141
-0.01292
-0.00724
-0.04838
0.15000
0.05803
-0.05643
0.05174
0.20751
0.00384
-0.05339
-0.01617
0.13986
0.11189
0.14905
0.00842
0.00381
-0.03091
-0.04881
-0.03048
-0.04132
0.05133
0.18355
-0.06099
-0.01142
-0.07150
0.07064
0.01697
0.03583
-0.01138
-0.01162
-0.06108
-0.02083
0.05650
-0.00929
0.04599
-0.03805
0.01362
0.09694
-0.05810
-0.05747
0.03007
0.00633
0.05469
-0.03980
-0.03863
-0.04033
-0.09434
-0.02119
-0.05557
0.01284
-0.03026
-0.01964
0.13818
-0.00799
-0.04767
0.14025
0.01075
-0.07157
-0.00477
-0.00773
0.01085
-0.02861
-0.01244
0.04658
-0.02648
-0.03910
-0.01171
0.04280
0.16107
-0.05899
-0.01315
-0.05102
-0.18396
0.05647
-0.03988
-0.21767
0.06074
0.03134
0.03410
0.09342
-0.06359
-0.02748
-0.00611
0.01534
0.11573
0.02785
-0.00729
-0.01428
0.13573
0.00078
0.06453
-0.00291
0.05599
0.01893
-0.02273
-0.01730
-0.03630
-0.05576
0.13559
0.05372
-0.17735
-0.08593
-0.01834
-0.00334
-0.00104
0.04256
-0.00140
0.01806
-0.03263
0.01400
-0.23582
0.18368
-0.01587
-0.00418
-0.00779
-0.03034
0.12249
-0.04607
0.04736
-0.03381
-0.03408
0.00697
0.05266
0.13395
-0.15553
0.04205
-0.03541
-0.06501
-0.04599
-0.01968
-0.01600
0.20333
-0.18697
-0.07668
-0.04218
0.05131
-0.04524
-0.03840
0.03901
-0.02854
0.03044
0.15201
-0.02258
0.04380
0.07433
-0.06602
0.04610
0.04993
0.00809
0.05660
0.01767
0.03424
0.06019
-0.00351
-0.03457
-0.03765
0.03943
0.03469
-0.10248
-0.02759
-0.08657
-0.03080
0.01505
-0.03256
-0.03395
0.00711
-0.00147
0.02717
0.06036
-0.01788
0.06109
-0.01607
0.08651
-0.06954
0.12361
0.12726
-0.01450
-0.03778
0.04812
0.01482
0.00727
0.02220
0.03527
0.02681
0.05687
-0.05985
0.05802
0.02306
0.21214
-0.05993
-0.00997
0.20335
0.03408
0.05747
0.02434
0.16358
0.03759
-0.20937
-0.00517
-0.02163
-0.22814
0.04754
-0.05274
-0.01828
-0.00440
0.04980
-0.02314
0.02176
0.10876
0.04482
-0.13403
-0.01115
-0.01270
0.05808
-0.07285
0.13571
-0.03811
0.04774
0.12724
-0.05130
-0.24432
-0.04546
0.01612
0.03528
-0.01928
0.03609
0.01729
0.02408
-0.03378
0.03227
-0.21538
0.08098
0.00470
-0.04471
0.06527
-0.13457
0.11382
-0.03347
0.07120
-0.01484
-0.05394
0.01790
-0.01389
0.05626
-0.10585
0.03156
-0.01406
-0.19518
-0.04700
0.05979
0.03289
0.00482
0.03797
0.07044
0.00083
-0.02333
-0.03169
0.06103
-0.04902
-0.00156
-0.02179
-0.10194
0.05168
0.08940
0.08962
-0.01782
-0.04717
-0.04872
-0.00034
-0.00928
-0.00360
-0.03824
-0.03670
-0.02650
-0.02378
0.02045
-0.02312
-0.00313
-0.00142
-0.05026
-0.01320
0.04357
0.00527
-0.09812
0.02289
-0.05970
0.12721
-0.05298
-0.03565
-0.02065
0.14727
-0.00622
-0.10213
0.14561
0.01378
0.07501
-0.05049
0.06550
-0.02046
-0.04010
0.04991
0.06245
-0.04518
0.04240
-0.00777
-0.04607
-0.01168
-0.05139
-0.00108
0.03204
0.04243
0.12189
0.07273
0.01539
0.00880
-0.09905
0.05534
-0.23424
0.03532
-0.10578
-0.08240
-0.03031
-0.04376
-0.03248
-0.07981
-0.03714
-0.11481
-0.03718
0.04847
-0.04664
-0.20550
0.03399
-0.02990
-0.06215
0.05140
0.03100
0.00032
-0.00517
0.03961
-0.04195
-0.03378
0.03916
-0.00708
0.06102
0.14592
0.02467
0.01097
0.02923
-0.00237
0.04554
0.07140
0.07700
0.00763
0.07351
0.00889
-0.01275
0.01829
-0.03243
0.01043
0.05356
-0.03072
-0.04748
-0.01546
-0.06076
-0.00302
0.03018
0.04222
0.00273
-0.03665
0.05690
-0.07080
0.10373
-0.09710
0.02917
0.06048
-0.02759
0.02132
0.03357
0.01553
-0.04209
0.03095
0.16362
-0.02385
-0.18964
-0.07151
0.02490
-0.01831
0.05825
0.02070
0.04357
-0.02037
-0.02316
-0.02254
-0.03765
0.01318
0.00660
0.00980
0.06511
0.06023
0.00963
0.06777
-0.01590
-0.01655
0.08587
-0.04820
0.02854
-0.21512
-0.02031
0.00980
0.04805
0.10908
0.05991
0.14442
-0.08172
-0.08767
0.12355
0.07603
0.05117
-0.00621
-0.02867
0.06089
-0.15563
0.03972
0.01291
-0.14655
-0.05780
-0.04610
0.02652
0.14617
-0.03083
0.03063
-0.07699
0.03815
-0.03036
-0.01883
0.09394
0.02662
0.04908
-0.05345
0.23545
-0.01875
-0.05262
0.03387
0.01636
0.27225
0.04547
0.08571
-0.05086
0.00880
-0.00909
0.06921
-0.01646
-0.01480
0.32638
-0.00671
0.14925
-0.03771
0.05306
0.05479
0.05564
-0.07253
-0.05788
-0.00045
0.03400
-0.06403
-0.05443
-0.01741
0.00092
0.05006
-0.01880
-0.05170
0.00676
-0.06000
-0.03009
-0.00656
-0.05856
0.03421
0.03236
0.02168
-0.02466
0.03250
-0.02050
-0.05202
0.02183
-0.03780
-0.01667
-0.05400
-0.05741
-0.04998
0.03985
0.03787
-0.03512
-0.05715
0.00256
-0.02500
-0.01585
-0.04899
-0.05904
0.01734
-0.00826
0.04745
0.02172
-0.03121
0.03717
-0.06361
-0.00339
-0.03878
-0.05291
0.03945
0.02262
0.04544
0.01452
0.04559
0.04636
-0.01334
0.00335
-0.02454
-0.04768
0.01397
-0.02711
-0.02485
0.00604
-0.04407
0.05170
0.01695
0.02224
0.03205
-0.02144
-0.05934
-0.06126
0.04564
0.01264
0.05211
-0.00504
-0.05240
0.02176
-0.01950
-0.05317
0.05901
0.05512
0.00938
0.03313
-0.02777
-0.04169
0.00965
-0.05428
-0.05416
0.00437
0.04398
-0.01500
0.00604
-0.01660
0.04200
0.02929
0.01319
0.00646
-0.01824
0.03765
0.05406
0.02461
-0.05372
0.04034
0.00787
0.03013
0.01772
0.00663
-0.02851
0.02199
0.03313
0.03394
-0.05745
0.06132
0.00732
0.03627
0.02839
0.03766
0.03490
-0.02132
-0.00653
-0.04348
0.02458
-0.05751
0.05842
0.00209
0.03821
0.04694
0.01171
-0.04112
-0.01937
-0.00474
-0.03063
-0.07272
-0.03227
-0.12739
-0.08416
0.01192
0.13907
-0.02979
-0.15611
-0.01550
-0.03389
-0.03719
-0.04885
-0.10301
-0.09672
-0.00486
0.01418
0.03197
0.06006
0.05528
0.21221
0.21128
-0.04816
-0.01906
-0.01879
-0.03127
0.01821
0.03760
-0.03659
-0.00495
0.01010
0.01487
-0.06015
-0.01431
0.06551
0.00265
0.04970
0.02338
0.05467
-0.04354
-0.03726
0.03901
-0.01551
-0.00358
-0.00676
0.04424
-0.02550
-0.10392
0.02332
-0.01427
0.01385
0.01469
0.03460
-0.06745
-0.02932
0.03897
-0.04825
0.04451
0.06118
-0.05286
0.08453
0.00576
0.14357
0.00421
0.15280
0.22881
-0.00947
-0.17088
0.05148
0.01475
-0.04702
-0.06110
0.05018
0.05395
0.07584
0.03392
0.02912
-0.02342
0.09557
-0.03778
-0.05588
-0.02419
0.07439
0.01590
-0.05457
0.08430
0.01693
-0.01204
-0.04599
0.08855
-0.07188
0.06016
0.02651
-0.04227
0.02538
-0.01681
0.00821
-0.00800
-0.06334
-0.02475
-0.03567
0.05684
-0.03687
0.19802
-0.00982
-0.07425
-0.01619
0.01683
-0.00295
-0.03393
-0.03573
-0.21202
0.04390
0.05530
0.11254
-0.03507
0.05202
0.04881
-0.05703
-0.04667
0.10498
-0.13448
0.00128
-0.08406
-0.00801
0.04291
0.07182
0.03213
-0.01606
-0.04728
0.05771
0.00968
0.01606
0.14507
-0.06299
-0.00014
-0.01655
0.15715
0.02634
-0.00208
0.07187
-0.04817
0.08036
0.05702
-0.00299
0.03546
-0.05457
0.03945
-0.03193
0.06089
-0.00089
-0.02648
0.02176
-0.02614
-0.16254
0.25473
0.00391
0.03968
-0.04962
-0.01668
0.01808
-0.03289
0.03280
0.04898
-0.04370
-0.01037
0.02087
0.11461
-0.10737
0.01252
0.12665
0.01841
0.04494
0.05378
0.00782
-0.02089
-0.04818
0.04557
-0.01464
0.00552
-0.21669
-0.01822
0.00280
-0.11511
0.01192
0.04822
-0.05371
0.03452
0.05485
-0.00908
-0.02125
0.10665
0.00062
-0.01201
0.03651
0.01296
0.00754
0.03956
-0.04011
-0.00485
-0.00340
0.08590
0.04403
-0.02929
-0.02657
-0.07203
-0.06005
0.20948
-0.02901
-0.07220
0.10598
0.02396
-0.04891
-0.00815
-0.04332
0.03989
0.06807
0.04068
0.13280
-0.03442
0.20496
0.02060
0.05173
-0.02093
0.12156
-0.09794
-0.01401
0.00303
0.05979
0.03057
-0.03819
0.03823
0.00286
-0.03826
0.02402
-0.01049
0.02105
-0.02102
0.05480
-0.00393
0.04819
0.18664
-0.00235
-0.02251
0.07167
0.02869
-0.00848
0.00258
0.12576
-0.05971
-0.02756
-0.04022
0.00118
0.07949
-0.07041
0.01338
0.00730
0.07984
0.00801
-0.03429
0.00870
-0.07300
0.00401
0.07162
-0.01093
0.05182
0.02547
0.02964
-0.02798
-0.02939
-0.04098
-0.06261
0.00007
-0.03295
-0.02475
0.09955
-0.03330
-0.04049
0.00088
-0.03249
0.01378
0.02030
-0.01209
-0.01594
-0.03636
-0.05761
-0.01886
0.25691
-0.11944
-0.01036
0.02759
-0.02207
0.05180
0.10165
0.04431
0.05728
-0.16091
0.05191
0.01152
-0.00697
-0.20970
0.04111
0.01694
0.04936
0.07145
-0.04871
0.07171
0.18797
-0.00764
0.01856
0.03885
-0.00749
-0.05412
-0.02702
-0.09712
-0.04851
-0.00871
0.04984
-0.09863
-0.04411
0.00079
0.14006
0.07459
0.05919
0.03822
0.09967
-0.05816
0.07608
-0.05853
0.11666
-0.16892
0.04988
-0.01482
0.03011
0.08438
-0.04131
-0.17226
0.02322
-0.17795
0.02803
0.20286
-0.04714
0.04584
-0.10281
0.20188
-0.02235
0.04861
0.05431
0.16880
0.05907
0.00266
0.07349
0.03845
-0.01929
-0.21111
0.02658
-0.00032
0.05075
0.03648
-0.02582
0.04394
-0.02326
0.00078
-0.02351
0.04662
0.03795
0.02820
-0.05028
0.02177
-0.00372
-0.03537
0.03817
-0.01470
-0.05909
0.02297
-0.01716
0.00337
0.00340
0.02121
0.05491
0.03427
0.04783
-0.01687
0.03814
-0.00817
-0.02526
0.05637
0.04169
-0.01477
-0.04355
0.01741
0.04393
-0.04611
-0.02599
0.00652
-0.05248
-0.03126
-0.00040
-0.04278
0.05772
0.05119
0.04285
0.04057
0.01294
0.05472
0.01943
-0.01974
-0.04688
-0.05281
0.01661
-0.03887
0.00928
-0.05174
0.03472
-0.05478
0.03733
0.01089
-0.00462
0.00332
-0.03388
-0.02951
-0.00334
0.02306
0.01856
-0.02054
-0.04640
0.01446
0.00849
0.05084
0.04898
0.05090
0.00285
-0.00374
-0.04985
0.04845
0.02189
-0.01394
-0.02024
0.05164
-0.02107
-0.01354
0.01574
-0.05682
0.01260
0.03397
-0.04485
-0.01052
-0.04202
0.05305
0.00408
-0.05058
0.01087
-0.02332
-0.05827
-0.00202
0.05541
0.01930
0.00291
0.00567
0.03391
-0.03116
-0.01438
0.02278
-0.05432
0.03170
-0.04852
0.00204
0.02113
-0.05863
0.02054
-0.04518
-0.01866
0.06077
0.00353
0.01646
-0.05820
0.04536
-0.02415
-0.01070
-0.03693
0.17492
-0.16402
-0.03081
-0.09990
-0.05329
-0.04139
-0.08954
0.04909
-0.14648
0.03775
0.03045
-0.01426
-0.02141
0.03158
-0.02091
-0.04983
0.05917
-0.13254
-0.02868
0.04342
0.10419
-0.01175
-0.05008
-0.14007
0.04248
-0.00729
-0.01174
-0.00598
0.04940
0.05704
0.02336
-0.06126
-0.06004
-0.26275
0.10728
0.09544
0.01432
-0.05633
-0.03982
0.02751
-0.05583
-0.00311
-0.01945
-0.03469
0.04657
0.01620
-0.05613
0.00586
0.05390
0.01360
0.24319
-0.02805
0.00973
-0.04223
-0.06115
0.02291
-0.03127
0.02624
-0.02401
-0.00544
-0.02669
0.00470
-0.02241
0.07341
0.04486
0.06469
-0.04100
0.07420
-0.02776
0.04256
-0.00813
-0.00761
-0.00929
0.01999
-0.09279
0.02625
0.05329
-0.04486
-0.20469
0.01385
-0.04394
0.03197
0.30843
-0.05683
0.02952
0.18372
-0.00097
0.00492
-0.04799
-0.05061
0.07273
-0.04375
-0.04515
0.02038
0.11541
0.03188
0.01604
-0.02086
-0.17472
0.02668
-0.06154
0.03698
0.03264
0.10420
0.16343
-0.21961
-0.04545
0.01204
-0.19612
0.05010
-0.06232
-0.05176
0.05182
0.01028
-0.06796
0.02361
-0.03293
-0.01928
-0.04580
0.04472
-0.11686
-0.06893
0.05425
0.08758
0.05427
0.05336
0.11054
0.02503
0.05660
-0.00564
-0.00288
-0.02282
-0.02963
0.15738
0.14457
-0.02055
-0.02139
0.33856
0.04838
-0.00076
0.05922
0.11539
0.12343
0.01775
-0.05869
0.00530
-0.05204
0.02010
0.04611
-0.00780
-0.01216
0.13728
0.01095
0.06998
-0.11451
0.07061
0.05468
-0.03590
0.06078
0.03283
-0.02426
-0.01463
0.01709
-0.02550
0.05342
0.01058
0.02522
0.07071
-0.08408
0.04831
0.08465
-0.01092
-0.00007
0.12505
-0.03152
0.02210
-0.10708
-0.02901
0.01915
0.00980
-0.07062
0.04830
0.07083
-0.09933
-0.06348
0.01929
0.08441
0.06643
-0.02419
-0.04739
0.02719
0.00949
0.03482
-0.03296
0.10250
0.05159
-0.05238
0.01396
0.09027
-0.05373
0.00588
-0.01932
-0.28060
0.05676
0.02108
-0.19520
-0.04618
0.01775
0.02188
0.06098
-0.02902
-0.03820
-0.02558
-0.00873
0.06015
-0.00479
-0.03280
0.01913
0.07193
-0.05904
0.13796
0.00866
-0.01077
-0.05366
-0.02016
0.00515
0.05161
-0.03238
0.21531
0.02244
-0.12133
0.03304
-0.02628
-0.01341
-0.00254
-0.01520
-0.01651
0.06006
0.05712
-0.05898
-0.03039
-0.00105
-0.04540
0.13552
0.09152
-0.08715
-0.05136
0.04752
0.01894
0.05632
0.00304
0.00019
-0.02182
0.11433
-0.02360
-0.03470
0.00365
-0.04598
-0.00196
0.01299
-0.01484
-0.02087
-0.01560
0.13986
0.03475
-0.02143
0.02146
0.00166
-0.02496
-0.00018
-0.04194
0.10019
0.00630
0.20647
0.07549
-0.11744
0.03881
-0.03703
-0.03443
-0.01259
0.01571
0.06042
-0.00393
0.02504
-0.04677
-0.05440
-0.04629
0.00208
0.20532
0.01980
-0.12872
0.01843
-0.01784
0.00399
0.02245
0.03166
0.05462
-0.02510
0.02046
-0.05453
0.19069
-0.04392
-0.11674
0.08821
0.06940
-0.07081
-0.11609
-0.08717
0.04163
0.02877
-0.05207
0.07180
-0.01137
-0.00920
0.07105
0.06110
-0.00981
-0.04720
0.13966
0.00325
-0.00546
-0.07222
-0.14999
-0.00734
0.04086
-0.14091
-0.05373
-0.06882
-0.01170
-0.15631
-0.02715
-0.02051
0.01463
-0.05275
-0.13445
-0.05292
-0.04388
-0.06079
0.18800
0.03035
-0.24184
-0.05831
0.01851
-0.01418
-0.08263
0.13278
0.04719
0.04402
-0.07464
0.04118
-0.03422
0.07210
-0.00533
0.05444
0.07214
-0.00399
-0.05661
-0.01146
0.03801
0.01385
-0.00036
-0.02586
0.01339
0.03000
0.01325
-0.03536
-0.05084
0.03789
-0.01450
0.04284
-0.02704
-0.06093
-0.00347
0.00818
-0.03664
-0.00139
-0.01701
0.02384
0.05267
-0.05285
-0.03136
0.00022
-0.02830
-0.04591
-0.03695
-0.03847
-0.02901
-0.01981
-0.01266
0.02085
0.02261
0.02250
0.01029
-0.03524
-0.05682
0.01232
0.02276
0.02260
-0.00955
0.03607
-0.04832
-0.03682
-0.02617
0.00513
-0.02009
0.05907
0.02155
0.04785
-0.05359
0.01310
-0.01896
0.06024
0.03269
0.02325
-0.00178
0.03752
-0.00236
0.02764
-0.03867
-0.00982
-0.05000
0.03030
0.05044
0.04973
0.03559
0.03537
0.01605
-0.01034
0.04974
-0.05529
-0.04417
-0.00692
0.01631
0.03509
-0.05666
0.04087
-0.04165
-0.04182
-0.01088
-0.01077
0.05669
-0.05713
-0.03222
-0.03168
0.04639
-0.03959
-0.05019
-0.03440
0.00081
-0.02958
0.02781
0.03729
-0.03577
-0.01887
-0.04010
-0.05398
0.00689
-0.05937
-0.01069
0.06094
0.02297
-0.02047
0.03518
-0.02282
0.03692
0.04259
-0.01328
0.05272
-0.00527
-0.03675
-0.02773
-0.03459
0.01633
0.05469
0.04037
0.05605
0.00481
-0.00819
0.00146
-0.04040
0.06105
-0.03367
-0.04073
-0.05310
-0.04316
-0.00401
-0.01298
0.02494
0.10816
-0.02304
-0.03797
0.00040
-0.03319
-0.02792
0.10963
-0.02597
-0.04528
-0.00662
-0.04949
-0.03269
0.02041
-0.06202
0.12208
0.06102
0.02897
0.05673
0.00559
0.00386
-0.03419
0.01005
0.00301
-0.05068
0.03046
0.02806
0.02279
0.13220
0.01663
-0.01953
0.03734
0.04553
0.01062
0.06110
-0.02484
-0.00421
0.05289
-0.02682
0.02190
0.07165
-0.08065
-0.02758
0.10237
0.05452
-0.05440
-0.06568
-0.02970
0.05416
0.01196
0.05652
-0.03289
0.04045
-0.08930
0.02733
-0.01084
0.12511
0.03780
-0.03984
0.04430
-0.03178
0.03783
0.05466
0.01318
0.05229
0.01950
-0.02257
-0.13345
0.03967
-0.00207
-0.00047
-0.05018
0.00149
0.03822
0.00949
0.01674
-0.00886
0.05377
-0.12323
0.04759
0.02469
-0.01475
-0.12159
-0.01471
0.00004
0.04471
-0.02770
-0.07044
0.03371
-0.11421
-0.02367
-0.02750
0.04902
-0.02271
-0.04322
0.00414
-0.07315
0.02928
-0.11395
0.02041
0.01326
0.09205
0.03374
0.00751
0.17458
0.04756
-0.03055
0.00891
0.01407
0.01729
0.04384
0.05369
0.02724
-0.08775
0.08498
-0.05419
-0.13429
-0.09110
-0.19341
0.05044
0.03693
0.02327
0.02798
-0.03133
0.04095
0.01444
0.21397
-0.21729
0.00840
0.01363
-0.22806
-0.05721
-0.01384
0.16348
0.04677
-0.06948
0.04499
0.00409
0.03627
0.05946
-0.05206
0.00649
-0.00981
-0.01031
-0.03986
-0.05340
0.05746
-0.04523
0.10732
0.03428
0.00361
-0.03018
0.04413
-0.01055
-0.05998
-0.00384
0.00993
-0.02792
-0.04080
-0.02296
0.01898
-0.00588
0.06039
0.16337
-0.05596
0.02268
-0.04265
-0.04328
-0.05866
-0.02035
0.00883
-0.04657
-0.05770
0.06838
0.01449
0.07341
-0.07798
0.19480
0.14803
-0.09181
-0.06474
-0.03567
0.01530
-0.04161
-0.04579
0.04159
0.03337
0.06617
0.01289
0.06129
-0.03123
0.11103
-0.01100
0.00707
0.18043
0.07614
0.05128
0.01267
0.16331
-0.04405
0.02208
-0.05935
-0.10850
-0.04201
-0.03891
-0.04473
-0.01486
-0.07715
0.00996
0.05304
-0.03299
0.12613
0.02518
-0.14519
0.04427
0.01848
0.27880
-0.08943
-0.06679
-0.01451
0.01889
0.11175
-0.04289
-0.23730
-0.14127
0.05841
0.04502
-0.04766
-0.03448
-0.05964
0.02511
0.00492
0.01161
0.00978
-0.04055
0.04977
-0.02547
0.04243
0.00063
0.04916
0.00156
-0.04241
0.01074
0.00750
0.02896
-0.02112
-0.01100
0.04515
-0.04011
-0.01791
-0.01120
-0.02827
-0.03936
0.04169
-0.06140
-0.04295
-0.00103
0.05349
-0.01206
0.03630
0.05064
0.04061
0.02719
-0.04417
0.01876
-0.05650
0.00239
0.04228
0.00041
0.00433
-0.03605
-0.00191
-0.02524
-0.04504
0.02704
-0.01341
0.05929
0.04579
0.04174
-0.01709
-0.01405
-0.01220
0.01751
0.02121
0.02360
0.01824
0.01541
0.03060
-0.03903
0.04193
0.02926
0.04674
0.00965
0.01655
-0.01185
-0.01690
0.04071
-0.01065
-0.00540
0.00836
0.02283
-0.00766
-0.01442
0.02971
-0.05229
0.01216
0.04352
-0.00946
-0.04150
-0.02449
-0.05980
-0.02216
0.02908
-0.01918
0.02007
-0.04262
-0.03673
-0.03524
-0.02134
0.00662
0.03340
-0.00598
-0.00528
-0.04589
0.05130
-0.03548
0.04884
-0.06005
0.06047
-0.00671
-0.00533
-0.05569
0.03466
-0.03290
-0.04540
-0.03076
-0.02805
0.04212
-0.01400
-0.00977
0.02239
0.02274
0.00019
-0.00724
0.03742
0.04556
0.05334
-0.05869
-0.02838
-0.01234
0.05457
-0.06090
-0.00035
0.04558
-0.14901
-0.05623
-0.01321
0.10905
-0.02259
0.10188
0.04690
0.15596
0.04069
0.03585
-0.03642
0.06009
0.09895
-0.02132
0.04024
0.03415
0.17994
-0.03162
0.05218
0.22797
-0.02130
-0.14821
0.15175
-0.05422
-0.05012
0.05762
-0.01191
0.05082
0.01877
0.05887
-0.07144
0.03355
-0.12247
-0.06556
-0.00536
-0.02609
-0.01927
0.04625
0.01904
0.02195
0.04962
0.02328
-0.05658
0.06110
-0.02786
-0.03397
0.12492
-0.00047
0.01678
-0.01501
-0.02054
0.00131
0.21300
0.04922
0.00017
-0.02220
-0.03778
-0.01610
-0.04855
-0.19744
-0.00303
-0.08837
0.19892
0.13576
0.08019
0.01315
0.12107
0.04690
0.02353
0.04377
-0.11282
-0.04915
0.04110
0.09039
-0.02869
-0.00146
0.01908
-0.02264
0.03924
0.03867
0.21374
-0.00335
-0.05554
0.04397
0.06957
-0.01239
0.08584
-0.04436
0.05173
0.03312
0.05702
-0.00485
0.05404
0.19879
0.01736
0.06220
-0.04652
-0.05969
-0.03451
0.06109
0.06132
-0.05727
-0.13371
0.19017
-0.07116
-0.01506
-0.04847
-0.02140
0.04524
-0.07511
-0.13357
-0.00391
0.01294
-0.01871
0.02055
0.01311
-0.04021
0.00810
0.05389
-0.03596
0.01251
0.05766
-0.00515
-0.01365
0.01980
0.00885
0.03232
0.02398
0.02379
0.04781
-0.03042
0.04000
0.04291
-0.05951
-0.01767
0.03867
-0.01824
0.05606
-0.01499
0.04083
-0.03371
-0.00218
-0.05815
-0.05181
0.03972
0.05772
0.05145
-0.00814
0.04889
-0.04352
-0.05955
-0.01168
0.04298
-0.05373
0.04616
-0.05687
-0.00448
-0.04741
-0.03465
0.06077
0.01160
0.06064
-0.02422
0.02673
-0.00252
-0.02429
-0.01047
-0.03446
0.02381
-0.01087
-0.00390
-0.06001
0.01601
0.05385
-0.05213
0.01077
-0.00857
0.03667
-0.05489
0.03399
0.03981
-0.01717
0.02648
0.03841
0.01183
-0.00269
0.03517
-0.05519
-0.04087
0.03928
0.01187
0.03014
0.05492
-0.04952
0.04558
-0.01855
0.02288
0.03831
0.05869
0.05626
-0.05849
-0.05371
0.04383
0.01086
0.02821
-0.02630
-0.00883
0.05856
-0.00201
0.00073
0.01528
-0.04524
0.03722
0.01322
-0.02255
-0.00322
-0.03030
-0.01114
-0.03882
-0.05064
0.00413
-0.00665
0.04592
-0.00768
-0.04808
0.02410
0.00129
0.01552
-0.04256
0.05363
-0.03406
0.00009
0.04977
-0.05182
-0.02717
0.04894
0.02516
0.01947
0.04179
-0.06420
0.01006
0.02075
-0.04079
0.01499
0.04781
0.03639
0.01881
0.08164
0.01659
0.05964
-0.02037
0.02594
-0.13912
-0.01150
-0.02479
-0.01050
0.21330
0.02186
0.01341
0.08222
0.17804
0.06352
-0.02849
0.03536
0.02776
0.00872
-0.03310
-0.00122
-0.05794
0.05865
-0.02798
-0.05917
0.16827
0.07104
0.15436
-0.05074
-0.01760
0.05727
-0.05111
0.01194
0.01351
-0.03791
-0.04508
-0.00523
0.04294
0.03311
-0.10242
0.00662
0.02426
0.05697
0.01417
0.03149
0.06219
-0.04214
0.01324
-0.13812
-0.00542
-0.00819
-0.02837
-0.21433
0.02054
0.17699
0.13257
0.24715
0.07465
0.16590
0.07112
-0.03026
0.04896
0.03230
-0.20225
-0.03662
0.03062
-0.10221
0.00429
-0.03578
0.03568
-0.03288
-0.01217
-0.05847
-0.06577
-0.11442
-0.04859
-0.02440
0.13538
-0.03128
0.04812
0.03911
0.11238
-0.08114
-0.01436
0.03045
0.03004
0.07118
0.05168
-0.18941
-0.01259
-0.29379
-0.02023
0.08520
-0.04080
-0.05614
-0.06982
0.14064
0.01244
0.04017
0.02388
0.13810
0.01914
0.07762
-0.03878
-0.00067
-0.04652
0.05362
-0.01023
0.00238
0.02813
0.00159
0.01235
-0.09432
-0.04120
0.00471
-0.08295
-0.07126
0.16089
0.21097
-0.02102
-0.09415
0.03649
-0.05550
0.01529
-0.03616
-0.02314
0.00835
0.05849
-0.03952
0.07139
0.03190
0.04135
0.06630
0.09344
0.10488
-0.07121
-0.02098
0.05430
-0.05195
-0.02461
-0.00502
-0.01015
-0.01144
-0.01271
-0.05592
-0.00845
0.04782
0.03155
-0.02394
0.03898
0.05133
0.00120
-0.00560
0.05469
-0.01658
-0.03786
0.01276
-0.04827
0.04579
-0.03446
-0.04570
-0.04061
-0.13548
0.00630
0.01187
0.01179
0.05145
-0.00945
0.05121
-0.04940
-0.03297
-0.01856
-0.09278
0.03235
0.17703
-0.01888
0.08535
0.14332
0.20149
0.10193
0.03707
-0.01287
0.00329
0.00419
-0.05854
-0.04936
0.02015
-0.01996
-0.03490
-0.05167
0.04516
0.05449
0.00245
0.01717
0.03565
-0.02434
0.05679
0.18224
-0.05842
0.06887
0.02886
0.10785
-0.01701
-0.00933
-0.01492
0.01166
0.08994
-0.04085
0.16056
0.00063
-0.10936
-0.05438
0.25757
0.04436
-0.02512
0.01715
0.02977
-0.06797
-0.00019
-0.01361
0.16658
0.05072
0.07142
-0.06220
-0.02184
0.01084
0.08325
-0.03186
0.04396
-0.01067
-0.03644
0.05973
-0.08383
0.07511
0.03845
0.05219
0.11149
0.13645
0.04333
-0.02434
0.12825
-0.04512
0.04581
-0.01127
-0.04349
-0.12332
0.00591
0.02953
-0.03434
0.03267
-0.01847
0.00565
0.07181
0.10680
0.01157
-0.00359
-0.00613
0.01446
-0.02891
0.03886
-0.00029
-0.00735
-0.05783
-0.18053
-0.03402
0.20205
0.13826
-0.05081
0.01746
-0.00612
0.04429
0.00991
-0.06036
-0.01075
-0.02103
0.03421
-0.01874
-0.03239
0.04226
-0.09003
0.04162
-0.03598
-0.19590
-0.02568
-0.04289
0.01707
0.05656
-0.01999
0.09933
-0.01037
0.03347
-0.02860
-0.00410
-0.05546
0.01206
0.18508
0.13196
0.07137
0.03610
0.08957
-0.03689
0.03936
0.02125
-0.07303
-0.02707
0.03167
0.03624
-0.01969
-0.04273
-0.01487
-0.05737
0.00002
-0.03380
-0.07090
0.03990
0.03184
0.00018
0.10132
-0.02966
-0.09080
0.01326
-0.04708
-0.12333
-0.05712
0.03295
0.06143
-0.01048
-0.02262
-0.20475
0.02947
-0.12720
-0.03177
0.04679
0.01332
-0.01765
-0.18375
0.07185
0.09901
-0.02297
0.04601
0.05518
0.03933
0.11348
-0.07170
-0.05058
-0.03273
0.15017
-0.00721
0.00074
-0.04199
0.01903
