0.06895
0.10695
0.10284
-0.07897
0.15714
0.03096
-0.06963
-0.19390
-0.07150
0.07192
-0.01526
-0.19442
-0.29943
-0.07784
0.19896
-0.08295
-0.21191
-0.52140
0.82064
0.27861
0.13538
0.21210
0.92861
0.06987
-0.17688
-0.14739
0.07139
-0.07230
0.16430
-0.01241
-0.39222
-0.31858
-0.22060
0.16964
0.07143
0.03640
-0.34539
-0.42000
-0.45220
0.27953
0.23995
-0.07115
-0.27356
-0.37924
-0.16618
0.24775
0.21925
-0.18472
-0.13669
-0.35830
-0.21457
0.17957
0.07121
0.05414
0.07339
-0.15993
0.48333
0.01945
-0.15062
0.07169
0.07397
0.21298
-0.36144
-0.19798
0.07135
0.49052
-0.30093
-0.17729
-0.09247
0.21946
0.35485
-0.21622
-0.19747
-0.14846
0.13806
0.00560
-0.12116
0.06696
0.18170
0.25091
0.06527
-0.04573
-0.06839
-0.35037
-0.46354
0.09779
0.21438
0.02458
-0.52075
-0.49685
0.18692
0.21238
0.90955
0.49270
0.44119
0.07027
-0.23746
-0.07406
0.12837
0.41167
0.07113
-0.02851
0.07439
0.06835
0.35744
0.35768
0.07588
0.04590
0.20512
-0.03939
-0.17071
0.07095
0.42916
0.21209
0.35747
-0.99251
-0.65650
-0.48115
-0.41639
-0.62368
-0.24724
-0.36190
-0.58091
-0.45701
-0.20163
0.26388
0.21148
0.06640
0.51152
-0.11484
-0.06792
-0.13362
-0.06965
0.89899
-0.16544
-0.15318
-0.21009
-0.06557
0.60060
-0.05061
-0.24028
-0.07401
-0.13646
0.50046
0.20000
-0.07110
-0.07175
-0.06547
0.30426
0.33082
