-0.06314
-0.33534
-0.54716
0.01602
0.10624
0.00173
-0.35673
-0.49831
0.10512
0.21504
-0.05765
-0.54402
0.00063
0.13414
0.09729
-0.07445
-0.24201
0.07247
0.21340
-0.18142
-0.06117
0.07125
0.21479
0.07001
-0.24619
0.16696
0.20506
0.04461
-0.21657
-0.08614
0.15151
0.09829
-0.07881
-0.06654
0.11999
0.21443
0.06904
-0.10116
0.05021
0.20785
0.07173
-0.05769
-0.12995
0.02343
0.06960
-0.02647
-0.07152
-0.07256
-0.06864
-0.05514
-0.07011
-0.07134
-0.06626
-0.02859
-0.11585
-0.06570
-0.04297
-0.04666
-0.04126
-0.07706
0.10982
0.05411
0.07739
-0.08326
-0.06191
0.21359
0.20182
-0.03111
0.06547
0.07402
0.20072
0.07090
-0.20766
0.01118
0.06492
-0.03826
-0.12685
-0.29085
-0.22746
-0.06651
-0.21084
-0.25630
-0.35791
-0.06806
-0.17705
-0.14113
-0.35267
-0.16894
-0.07159
-0.18711
-0.05179
-0.07326
0.07048
-0.20715
-0.16740
-0.02489
0.07184
0.03826
-0.01213
-0.06610
-0.14615
0.00826
-0.08191
-0.08636
-0.31682
-0.00092
-0.16967
-0.32754
-0.37415
-0.34902
0.03948
-0.21578
-0.35444
-0.21168
-0.36977
-0.03140
-0.23326
-0.43956
-0.08674
-0.07198
-0.20262
-0.22381
-0.21545
0.00304
0.07367
0.07107
0.02197
-0.27368
0.05842
0.37609
0.07294
0.02486
-0.40001
0.02722
0.10605
-0.05562
-0.24361
-0.22903
0.06185
0.07202
-0.00457
-0.22565
0.04371
0.01333
0.19391
-0.13810
-0.03905
0.04215
0.07470
0.07133
0.04735
0.00895
-0.01777
0.01198
-0.04592
-0.05367
0.03358
0.02832
-0.00876
0.02710
0.02971
0.05353
0.02080
-0.00166
0.00831
0.03207
-0.02671
-0.03697
-0.04253
-0.02698
-0.04124
-0.00189
-0.00195
-0.01157
-0.01293
0.03729
0.03649
0.05104
0.02462
0.04801
0.04058
-0.04353
-0.00754
0.03398
0.02362
0.02776
0.04628
-0.01899
0.03630
0.04851
0.02059
0.01332
-0.01347
0.04177
-0.00867
0.03706
0.00007
0.04414
-0.03631
-0.01397
-0.01445
0.04087
-0.05064
-0.05127
0.01042
-0.01915
0.05323
0.00518
0.02747
-0.05044
0.02712
0.02858
0.01681
-0.02915
0.01229
-0.05449
0.03881
0.04565
-0.01908
0.02798
-0.01192
0.01671
0.01814
-0.00926
-0.05197
-0.01985
-0.05070
-0.02423
0.01700
-0.00952
-0.01686
0.03489
-0.00819
0.01454
0.02262
-0.02876
0.01668
0.01684
0.02858
0.02524
0.04405
-0.05035
-0.02898
-0.02417
-0.04223
0.02623
0.05329
-0.03516
-0.02857
-0.03147
-0.00247
0.00764
-0.00703
0.04935
-0.04883
0.02880
0.00237
0.01652
-0.03244
-0.02484
0.03288
-0.02426
0.01709
-0.00858
0.04204
0.01408
-0.03179
0.03214
-0.00041
0.00501
0.03185
-0.01069
-0.05062
0.04951
0.04658
-0.01191
-0.02921
0.03953
0.01735
-0.05290
0.03067
-0.03351
-0.00034
0.02436
0.03464
-0.03880
0.01013
-0.01060
0.02922
0.04076
0.03263
0.03116
0.01684
0.04345
0.00452
-0.01875
-0.00220
0.02231
-0.02840
-0.03528
-0.01845
-0.03430
-0.01396
0.04488
0.04197
-0.01756
0.03407
0.01384
0.00130
-0.03768
0.01109
0.01377
-0.04592
-0.03872
-0.00615
-0.01292
0.01176
-0.03233
-0.05335
0.04577
0.01702
-0.03720
-0.02150
-0.05365
0.02958
-0.01342
0.03227
-0.04979
-0.00908
0.04630
0.02413
0.05469
-0.02434
-0.02543
0.00453
-0.01007
0.03124
0.03985
0.00215
0.03617
-0.03765
-0.01978
-0.03220
0.00850
0.01702
-0.00215
0.01570
0.04337
0.02352
-0.04973
-0.05082
0.00015
0.02489
0.00147
0.04863
-0.02989
0.02208
0.01322
0.04359
-0.02112
0.03045
0.05360
-0.01829
0.03009
-0.02393
-0.04885
-0.01628
-0.03324
0.04882
-0.00697
-0.02539
-0.02683
-0.02623
-0.00613
0.04502
-0.05075
0.00957
-0.05492
0.04558
-0.05412
0.04145
-0.04543
0.05236
-0.04751
-0.04920
-0.04582
-0.01366
-0.00893
0.00743
-0.02299
-0.00655
-0.00646
-0.00890
-0.00311
0.01801
0.04177
-0.03259
-0.00944
-0.05468
0.05000
-0.04873
-0.04150
0.02090
0.01859
-0.02761
0.04180
-0.04843
0.03637
-0.02120
0.01308
0.02291
-0.04472
-0.04118
-0.05347
0.02343
-0.01561
0.00760
-0.00777
-0.04446
-0.03406
-0.02891
0.05338
0.03576
-0.01175
-0.01344
-0.04903
-0.03086
-0.00481
-0.03032
0.02291
0.04568
-0.01836
-0.03404
0.04906
-0.04924
0.05329
0.04326
-0.04453
-0.01891
0.04390
0.03352
-0.00926
-0.00816
-0.02073
0.02273
-0.00900
-0.03372
-0.01365
-0.03532
0.01936
0.15916
0.03824
0.07160
0.13806
-0.06506
-0.18815
-0.25524
-0.40202
-0.43002
-0.33030
-0.00338
-0.19782
0.02785
-0.00805
-0.03861
-0.07132
0.04390
0.19968
0.17058
0.16088
0.07003
0.21383
0.07336
0.04859
0.10760
0.01237
-0.02110
-0.07137
0.03287
0.02179
-0.00346
-0.03620
0.04797
-0.04221
-0.23038
0.01279
-0.06864
-0.00375
-0.14817
0.05549
0.03175
0.04840
-0.15656
-0.13152
0.07148
0.07288
0.06785
0.07006
0.09229
-0.04369
-0.00757
-0.07182
0.07067
0.03711
0.18226
0.13614
0.03032
-0.19357
-0.18027
-0.05157
-0.07196
-0.35231
-0.26185
-0.28695
-0.32403
-0.07251
-0.11683
-0.07962
-0.09895
-0.18196
0.09592
0.06654
0.17895
-0.01172
0.00653
0.21478
0.06452
-0.14235
-0.37169
-0.31425
-0.06781
-0.24670
-0.23308
-0.31841
-0.31247
0.07117
0.07859
-0.04055
0.07084
0.33793
0.06740
0.07817
0.07186
0.22896
0.21513
0.05919
0.02605
0.21300
0.12407
0.05765
0.03652
0.02078
-0.12212
-0.07969
0.09516
0.21846
0.21273
0.28205
0.39384
0.24590
0.07150
0.00644
0.07124
-0.07710
-0.35057
-0.22147
-0.25801
-0.17927
0.06944
0.21274
-0.05666
-0.08503
0.10186
0.07107
0.05590
-0.14388
-0.10710
0.15159
0.11322
-0.09462
-0.25637
-0.17076
-0.24155
-0.45593
-0.35264
-0.51493
-0.50981
-0.53796
-0.49928
-0.30306
-0.21475
-0.23827
-0.35759
-0.45746
-0.26691
0.06867
-0.00496
-0.07011
-0.04812
-0.07180
0.03247
0.00855
-0.00738
0.03385
-0.04596
0.00812
-0.02948
0.00503
-0.00482
-0.01547
-0.03019
-0.00942
0.02475
0.05248
-0.00326
0.03194
-0.03900
0.01159
0.02019
-0.00480
-0.00800
0.03378
-0.05490
-0.01367
-0.03824
-0.02835
0.01511
-0.03668
-0.05345
0.00238
0.02633
-0.02524
-0.03616
-0.01318
-0.03044
0.05259
0.04327
-0.03629
-0.01926
-0.05204
0.03673
-0.02785
0.00147
0.03273
-0.05341
0.00571
0.02564
-0.03717
0.05278
0.05263
0.04065
0.04807
-0.04531
-0.03266
0.03337
0.02429
0.03888
0.01033
0.00584
-0.02795
-0.05365
0.02061
0.01630
-0.00135
0.04222
0.05448
-0.01853
-0.01886
-0.01617
0.00342
-0.03664
0.05308
0.00256
-0.00819
-0.00538
-0.03728
0.01981
0.03475
-0.01191
0.01653
-0.01802
0.00288
-0.01720
-0.03147
0.04102
-0.04902
0.03010
-0.05092
-0.04488
0.02088
0.04153
0.04459
0.00945
-0.02560
0.00826
-0.02277
0.04711
-0.05034
0.03500
0.03430
0.02263
-0.02034
-0.04294
-0.02727
0.05027
0.04133
0.00041
-0.02632
-0.04428
0.04770
0.02880
0.02759
-0.05075
-0.01609
-0.02272
-0.02990
-0.01909
0.02622
-0.03732
-0.00538
0.02972
0.05149
-0.04924
-0.05438
-0.04181
-0.02397
0.00842
-0.01655
-0.00097
-0.04840
-0.01301
0.01880
0.03652
0.01166
0.03462
-0.04138
0.02167
0.04698
-0.02149
-0.02652
-0.05009
0.01804
0.04471
0.04721
-0.00843
0.03757
0.03587
0.04426
0.00947
0.04771
-0.02519
0.02761
0.04270
0.01696
0.04352
-0.01672
0.03384
0.03215
-0.00403
0.00007
0.02195
0.00815
0.02057
-0.00628
-0.04851
0.02582
0.02980
-0.01587
0.00661
-0.00746
-0.01255
-0.02394
-0.01426
0.03609
-0.05051
0.01755
-0.02521
-0.02340
0.04774
-0.01931
0.04001
0.04593
0.04845
0.02113
-0.04482
-0.04046
0.00087
0.00996
0.01258
-0.03713
0.04942
0.05461
-0.03897
0.05401
0.02624
-0.05450
0.03385
0.03272
0.03837
0.05164
-0.04783
-0.05073
-0.01860
0.04293
0.02189
-0.00063
0.03586
0.02788
-0.01310
-0.00327
-0.03519
0.01846
-0.03774
-0.02495
-0.05471
-0.04095
0.00512
0.01932
-0.05382
0.02975
0.03544
-0.00965
0.00257
0.02292
-0.04576
0.03302
-0.03262
-0.04121
-0.05374
-0.01079
0.03834
-0.00474
-0.05337
0.01617
0.01695
-0.03572
0.02740
-0.00282
-0.01793
-0.00444
0.01617
0.00550
0.05095
-0.03877
-0.03017
-0.03692
-0.05391
-0.05025
-0.00112
-0.03370
-0.02766
-0.04891
0.03648
-0.00103
-0.03138
0.03486
0.00503
0.00203
-0.05397
-0.03807
0.01466
0.00683
0.00840
-0.04715
-0.01351
-0.03070
0.01014
-0.04603
0.01584
0.02856
0.04142
0.02333
-0.01257
0.01817
-0.03296
0.02590
-0.01815
-0.05381
0.05246
0.04637
-0.04157
-0.00435
-0.04607
-0.00288
-0.01103
0.00450
-0.03970
0.05265
-0.02721
0.02107
0.00047
-0.05189
0.02366
0.00838
-0.03249
-0.01633
0.01908
0.01248
-0.00707
0.01227
0.01346
0.04731
-0.02076
0.01491
-0.01338
-0.03322
0.02607
-0.04650
-0.05358
0.00255
-0.04880
-0.02606
0.02776
-0.00550
-0.01391
-0.01988
-0.05097
0.01971
-0.02828
-0.02554
0.03294
0.02118
-0.00337
-0.05016
0.01258
-0.02969
-0.02045
-0.03407
0.00317
0.04706
-0.05291
-0.03419
-0.03177
-0.04941
0.02214
-0.01497
0.00284
-0.05121
-0.02140
0.00145
-0.01218
-0.02990
0.02341
0.03895
-0.03471
-0.00276
0.03834
-0.01395
0.03838
0.01307
-0.04665
0.00591
0.05325
-0.01404
0.05127
-0.03554
-0.00741
0.05214
0.01103
-0.03062
-0.02482
0.01316
0.02665
-0.04984
-0.02225
0.00372
-0.02699
0.04603
0.03993
-0.04787
0.04847
-0.00184
-0.03092
-0.05485
0.02787
-0.02235
0.00056
0.03292
0.04514
-0.04933
0.02131
0.04826
0.03223
0.00296
-0.00837
-0.01983
-0.04282
0.01964
0.03992
-0.05004
0.04703
-0.03290
0.01197
0.01836
-0.02394
-0.02113
0.02283
0.00836
-0.03239
-0.01246
-0.01763
-0.01967
0.00089
0.04393
-0.05413
0.00010
-0.03145
0.04971
0.05826
-0.03056
0.03320
0.01264
0.00778
-0.03764
-0.03868
0.04454
0.03537
-0.03726
0.04948
0.02448
-0.04889
0.04286
0.00053
0.04764
0.01280
-0.00601
-0.04107
-0.03342
0.01496
-0.02716
-0.02719
0.03086
-0.01601
-0.00210
0.05008
-0.03660
-0.00828
-0.01873
-0.00649
-0.04438
0.00107
-0.03292
-0.01329
-0.05389
0.03554
-0.03093
0.01933
0.03237
0.03411
-0.02987
0.20620
-0.00893
-0.07100
-0.21183
-0.22757
0.07093
-0.10269
-0.23371
-0.48236
-0.45098
0.07747
-0.11065
-0.07418
-0.22714
0.04326
0.17503
0.18384
0.15166
0.06909
0.13727
0.17705
0.19954
0.35743
0.35696
-0.06087
-0.02340
0.01738
-0.06401
0.07174
0.07308
0.07116
0.20092
0.15528
0.21376
0.21397
0.05991
0.18324
0.34976
0.20553
0.27090
0.06974
0.10138
0.13308
0.18899
-0.07286
-0.01419
-0.05490
-0.12375
-0.20917
-0.26219
-0.13469
-0.05021
-0.01698
0.06937
0.23609
-0.05454
-0.08444
-0.12873
0.07085
-0.03438
0.06888
0.06927
-0.04502
-0.11548
-0.18782
0.07443
0.01758
-0.07283
-0.05292
-0.05451
0.10232
0.03886
0.07247
0.13262
0.08335
0.06201
-0.03177
-0.03975
0.00905
0.07124
0.07164
0.04007
0.07096
0.14582
0.08577
0.06898
0.12672
0.08985
0.21385
0.16404
-0.07076
0.07193
0.08372
0.00862
-0.07101
0.06899
-0.06215
-0.14276
-0.39253
-0.22853
0.02262
-0.10396
0.06345
0.13672
0.21507
0.05647
-0.02756
-0.03785
-0.05268
0.01743
0.07119
0.05287
0.03916
0.07405
-0.35692
-0.03487
-0.07165
-0.12650
-0.28961
-0.48978
-0.08557
-0.06476
-0.20359
-0.33885
-0.07493
-0.10777
-0.29410
-0.23770
-0.19778
-0.07277
-0.21374
-0.04170
-0.07161
0.03900
0.21202
0.00742
0.06860
0.07282
0.21161
0.52603
0.13984
0.06926
0.21383
0.21304
0.35197
0.07107
0.10881
-0.08903
-0.02210
-0.09827
0.06977
0.03575
-0.12187
-0.04194
-0.12268
-0.03092
-0.06932
-0.01073
-0.06358
0.06951
-0.20482
-0.06904
0.05813
-0.04598
0.20395
-0.44219
-0.33448
-0.22383
0.03442
0.06181
-0.34121
-0.37445
-0.41575
-0.36245
-0.07248
-0.08082
-0.04842
-0.06862
-0.04066
0.07104
-0.07898
-0.06785
0.07338
0.16201
0.21959
0.02119
0.11936
0.20531
0.07065
-0.08397
0.00772
-0.06376
0.06026
-0.18657
-0.10214
0.05150
0.07256
0.15600
-0.14901
-0.29791
-0.06783
-0.03908
-0.05367
0.03351
-0.13189
0.00135
-0.04445
-0.07235
-0.03936
0.02956
0.05245
-0.07149
-0.07090
-0.06394
-0.09001
0.01927
0.06558
-0.01982
-0.05184
0.03835
0.13615
-0.07028
-0.26996
-0.20912
-0.04141
-0.15595
-0.07346
-0.14115
0.00614
0.05036
0.02310
0.03960
0.13701
0.10643
0.05028
0.22520
0.05925
0.09159
0.00161
0.00448
-0.06013
-0.07240
0.05505
0.07072
-0.14719
-0.12703
-0.31216
-0.33274
-0.21552
-0.42631
-0.26218
-0.20728
-0.17054
0.00046
-0.02280
-0.35653
-0.22170
-0.21382
-0.07473
-0.06125
-0.07178
-0.07168
-0.04609
-0.04750
-0.06492
0.33985
0.21768
-0.07122
0.13380
0.09557
-0.06896
0.07155
0.05168
0.27771
0.38404
-0.07257
-0.19085
-0.21842
-0.32218
-0.16726
0.07111
-0.07069
-0.19281
-0.11992
-0.04340
0.17370
0.09073
0.20900
0.12698
0.01768
-0.04714
0.05141
0.07250
0.07132
-0.07160
-0.28215
-0.29594
-0.27160
-0.20623
-0.01147
-0.01722
0.04164
0.00888
-0.03901
-0.00455
-0.00300
-0.00418
-0.01054
-0.04058
-0.02554
-0.03048
0.00489
0.03933
0.00945
-0.00111
0.00191
-0.03735
0.03523
-0.03822
0.04262
0.02280
0.05348
0.02520
-0.05275
-0.03422
0.00788
0.02515
-0.04850
-0.05319
0.03815
-0.05014
-0.00781
0.01395
-0.00740
0.04962
0.01382
-0.02095
0.03280
0.02775
-0.02829
-0.05288
-0.03721
-0.01626
-0.03547
0.04733
0.03428
0.00910
-0.02628
0.04004
-0.01965
-0.05333
-0.05286
0.01717
-0.02287
-0.01236
-0.02326
0.02263
-0.03695
0.03188
-0.05152
0.01752
-0.03828
-0.02434
0.01706
0.01740
0.00087
0.05180
-0.03391
-0.02250
-0.02548
0.01557
-0.00659
0.03596
0.01603
0.02953
0.01016
-0.05048
0.04777
0.00632
0.04538
0.05294
-0.05489
0.02231
-0.01874
-0.01784
-0.03240
0.04127
0.03223
-0.04145
0.02705
-0.05126
0.01237
-0.02347
0.02732
-0.04585
-0.01590
0.04928
0.04816
-0.04421
0.04563
0.04592
-0.03936
-0.04531
-0.02361
0.04548
-0.02864
0.03066
-0.01771
-0.04501
-0.03769
-0.01759
-0.05385
0.03497
0.04757
0.03998
-0.03764
0.03284
-0.01796
-0.02653
-0.00421
0.02460
0.00523
-0.02778
0.01786
0.03573
-0.03725
0.03475
0.00894
0.02826
-0.04234
0.00812
0.01792
-0.04936
0.04379
-0.02931
0.03371
-0.04421
-0.03132
-0.04610
0.00489
0.00679
0.04740
0.05485
0.04284
-0.01358
0.02739
0.01180
-0.01592
0.00535
0.05003
-0.11755
0.07338
0.18679
-0.01001
-0.14151
-0.04525
0.17909
0.14434
-0.06839
-0.22366
0.08465
0.06645
-0.20751
-0.12600
-0.18725
0.12024
-0.07758
-0.27313
-0.19364
-0.20827
-0.07189
-0.00952
0.09089
0.06857
-0.04831
0.06687
0.02031
-0.07235
-0.11349
0.07358
0.10408
-0.07646
-0.21497
-0.10796
-0.02340
-0.07181
-0.09525
-0.18650
-0.10829
0.07120
-0.15427
-0.03672
-0.06211
0.07093
0.19607
0.06104
0.21763
0.04663
0.21440
0.17672
-0.12463
-0.05208
0.01768
0.19180
0.07110
-0.19800
-0.04370
0.09802
0.18514
0.14296
-0.12777
0.07707
0.08545
0.09376
-0.07253
0.06794
0.06721
0.04637
0.02941
-0.10669
0.11389
0.18732
-0.04215
0.01169
-0.14598
0.03134
-0.05777
-0.07552
0.07273
-0.09531
0.07186
-0.08020
0.00742
-0.01114
-0.07901
-0.16786
0.00991
0.07178
-0.02401
-0.09094
-0.16709
0.00486
0.06228
-0.03098
-0.07231
-0.07612
0.07138
-0.03227
0.03843
-0.02164
0.06643
0.05940
-0.01289
-0.07206
0.07125
0.21465
-0.05329
-0.18235
-0.02496
0.19587
0.01947
-0.22779
-0.07144
0.14764
0.18030
-0.28546
-0.13530
-0.21166
-0.06033
-0.06866
-0.08855
0.13301
-0.06862
-0.12815
-0.24867
-0.13838
0.03703
0.07079
-0.01774
-0.15600
-0.04785
0.07130
-0.01460
-0.21477
-0.23446
0.01483
0.07418
-0.03325
-0.21138
-0.16573
-0.03629
0.20686
-0.06288
-0.22927
-0.20768
0.16147
0.11642
0.07117
-0.10108
-0.12687
0.02491
-0.01295
0.00386
0.05430
0.01886
-0.00169
0.02803
-0.03908
-0.05015
0.04208
0.02841
0.03391
-0.00129
-0.04382
0.01118
0.00427
-0.01537
-0.01998
0.01273
-0.01073
-0.02382
0.03200
0.03189
0.04493
-0.04310
0.04531
-0.04770
0.01451
-0.01984
0.04764
0.00300
-0.00238
-0.02831
-0.03214
-0.03833
0.03621
-0.03156
0.03358
-0.01249
0.03008
0.02289
-0.03705
-0.01069
0.01070
0.02452
-0.02165
-0.01109
0.04740
0.01302
-0.04679
-0.01766
0.01393
-0.02662
0.01142
-0.04481
-0.02580
-0.00936
0.03374
0.01025
0.02594
0.01635
-0.04855
-0.05322
-0.05141
-0.04019
-0.01274
-0.03887
-0.00583
-0.05359
-0.02521
-0.00783
-0.00639
-0.04097
0.04512
-0.04599
0.00635
-0.00359
-0.01294
0.03363
0.02257
0.01432
0.05404
-0.02121
-0.05321
-0.00138
0.01714
0.00940
0.00707
-0.04053
0.01707
-0.01864
0.00383
-0.02608
-0.03551
0.00253
-0.01861
-0.03385
-0.04777
-0.01474
0.02445
-0.01543
0.02755
0.04830
-0.00131
-0.03292
0.02140
-0.00097
0.03216
-0.05247
-0.00504
-0.02249
0.02356
0.02261
-0.03966
-0.00681
-0.00156
0.00634
0.00019
0.04424
0.04006
0.02165
0.03148
0.00221
0.00518
-0.02429
0.01472
-0.02824
0.04318
-0.00065
-0.02813
-0.02044
0.00978
0.01134
-0.02295
-0.04038
-0.02253
-0.01844
-0.03217
-0.05445
0.04726
-0.02497
-0.00797
-0.01875
0.02678
-0.03980
0.04883
-0.03864
-0.04105
-0.01422
0.00978
0.08320
0.19517
0.35554
0.07748
-0.06423
0.03289
0.22689
0.07613
0.00128
0.05590
-0.23459
-0.03434
0.13546
0.01291
-0.13397
-0.23434
-0.09015
0.03231
0.08661
-0.07419
-0.03671
-0.06678
0.06866
0.06349
-0.07783
-0.07167
-0.16543
-0.12739
-0.03722
0.10653
-0.15262
-0.30810
-0.21718
-0.10693
0.14368
-0.07292
-0.12755
0.00922
0.07863
0.10778
0.07221
0.10409
0.14188
0.07156
0.05041
0.07116
0.21216
0.07057
0.06571
0.03735
0.05129
0.12156
0.11650
-0.02781
-0.06974
0.18918
0.20490
0.31069
-0.01367
-0.05731
0.08931
0.10519
0.23696
0.06587
0.02278
-0.11525
-0.11295
-0.06832
-0.04303
0.06096
-0.07055
-0.07266
-0.07462
0.01633
0.07856
0.01960
-0.05985
0.04445
0.04249
-0.02378
-0.06692
-0.01581
0.07766
0.02126
-0.06846
-0.01620
0.21447
0.07355
-0.08809
-0.09572
0.21403
0.22118
0.07322
-0.14885
-0.21397
0.15009
0.19642
0.07128
-0.08569
-0.19476
-0.09400
-0.05522
0.01464
0.05518
0.01869
-0.23510
-0.04898
0.08664
0.11055
0.04615
-0.07546
-0.10078
-0.02627
0.07124
0.04281
-0.05836
-0.08865
-0.03398
0.06428
-0.05486
0.06169
0.10223
0.02316
0.07061
-0.06826
-0.07470
-0.12694
-0.06103
0.00361
0.02001
-0.08763
-0.15385
-0.07217
0.03845
-0.10497
0.00232
-0.06907
-0.07333
0.06139
-0.04209
0.16772
0.05920
-0.15976
0.02452
0.00353
0.20708
0.15690
-0.14120
-0.07066
-0.02428
0.09119
0.14006
0.00831
0.07044
0.05782
0.06661
-0.05190
0.18980
0.11996
-0.07089
0.07019
-0.07661
-0.07200
-0.18287
-0.24304
-0.19233
-0.06571
0.06439
0.07536
-0.04616
0.03793
0.35581
0.21046
0.20900
-0.09986
0.06644
0.03168
-0.08387
-0.11947
-0.03202
-0.03145
0.00992
-0.08815
0.02117
-0.11161
0.09067
0.18535
0.10726
0.08264
-0.04689
0.04038
0.07108
0.06014
0.09678
-0.00956
-0.02548
-0.05225
-0.11980
-0.07531
-0.12974
0.05136
0.06776
0.10295
-0.01489
-0.09913
-0.00479
-0.08341
-0.05636
-0.07235
-0.09476
-0.09462
-0.23126
-0.14378
0.01584
-0.14365
0.09507
-0.12486
-0.12303
-0.03541
-0.06026
0.07068
-0.22452
0.03640
0.06882
0.00781
-0.20544
-0.30975
-0.32675
-0.29765
-0.12133
0.45938
0.32477
0.25579
0.10599
0.21814
0.09311
0.25130
0.21401
0.08492
0.01688
-0.12708
-0.23512
-0.15051
-0.02094
-0.10107
-0.25781
-0.16131
-0.13158
-0.05504
-0.04212
0.08366
0.08338
0.03935
-0.09224
-0.07158
-0.04491
-0.19771
-0.20525
-0.05584
-0.13199
0.18269
-0.10580
0.01283
-0.04621
-0.07794
0.19990
0.38479
0.34717
0.19191
-0.04798
-0.20391
-0.21502
-0.21787
-0.20594
-0.06918
-0.14388
-0.10136
-0.00974
0.07589
0.07347
-0.07282
-0.06828
-0.05602
-0.06156
-0.13441
0.01005
0.06097
-0.06894
-0.21267
-0.07148
-0.16266
0.09435
0.06295
0.21267
0.19252
-0.28969
-0.06916
-0.06004
0.07287
0.04106
0.06267
0.07623
0.03527
-0.06833
0.00918
0.07698
0.07112
-0.07125
-0.16101
-0.10096
-0.01119
0.27942
0.14373
0.08325
0.03904
-0.07057
0.32753
0.09195
0.07145
-0.01303
-0.15459
-0.15328
-0.03084
0.08686
-0.11824
0.07248
-0.07806
-0.20750
-0.07155
0.06472
-0.17462
-0.18266
-0.04374
-0.05719
0.10308
-0.18128
-0.03792
-0.08481
0.03361
0.27755
-0.06570
0.00264
-0.07843
0.09788
0.12873
-0.07359
-0.07307
0.05573
0.08950
-0.13819
0.02566
0.18133
0.06073
0.17900
-0.08104
0.06234
0.32208
0.06830
0.07113
-0.06245
0.06169
0.17715
0.07384
-0.02094
0.02917
-0.07378
-0.08631
-0.07947
-0.07689
-0.08767
0.01203
0.07072
0.06994
-0.07100
0.00939
-0.08394
0.02497
-0.06777
-0.07013
-0.16036
0.08426
-0.16036
0.02769
0.00462
-0.21709
0.21342
0.21497
0.08414
0.08666
-0.11935
0.40425
0.13228
0.35821
0.21060
0.35954
0.07956
-0.16260
-0.32023
-0.05479
0.21056
-0.32596
-0.40421
-0.03818
-0.08403
-0.06728
-0.38758
-0.18162
-0.01138
-0.07152
-0.15367
-0.50006
-0.10980
-0.07292
-0.03871
-0.15743
-0.17867
0.07183
0.20968
0.07609
-0.06809
-0.06888
0.09265
0.21379
0.21156
0.12774
-0.01189
-0.07552
-0.20037
-0.22647
-0.21369
-0.08305
0.00143
-0.09324
-0.08887
0.02476
0.07055
0.09849
0.07153
-0.01042
-0.16904
0.08366
0.02101
-0.02680
-0.14619
-0.31061
0.07345
-0.05704
0.04370
0.17020
0.01151
0.15854
0.06559
-0.00206
-0.07288
-0.04160
0.04955
-0.07209
-0.07183
-0.07228
0.07740
-0.09141
-0.21490
-0.04546
0.06879
0.07177
-0.21488
-0.35678
-0.21448
-0.20929
0.03974
-0.08453
-0.10984
-0.22344
-0.21458
-0.12960
-0.05389
0.06923
-0.02219
0.04695
-0.21283
-0.02434
0.06202
-0.07197
-0.00681
-0.08542
0.07112
0.06789
0.02048
-0.00831
0.07124
-0.05330
0.04702
-0.00013
0.06823
0.08351
-0.04914
0.10248
0.06155
0.21457
0.08249
0.03868
-0.07205
-0.11120
-0.07118
-0.08078
0.06065
0.02384
-0.00741
-0.07018
-0.01456
0.07099
0.16459
0.04495
0.04122
0.03634
0.03989
0.21277
0.02279
0.18121
0.05909
0.11488
0.08228
-0.02103
-0.09714
-0.17007
0.15715
0.14164
0.12171
-0.10062
0.08542
0.07170
0.00805
-0.09142
-0.15874
-0.09985
-0.14122
-0.23214
-0.15731
-0.13610
0.06725
-0.23709
-0.19590
-0.17251
-0.21327
0.01441
-0.19651
-0.18994
-0.23847
0.03716
0.47515
0.01690
0.06741
0.07550
-0.21206
-0.21009
0.17196
0.17951
0.02067
-0.31631
-0.23753
0.08326
0.07195
-0.07135
-0.28818
-0.17381
-0.07185
0.05476
-0.06434
-0.30023
-0.28936
-0.17508
0.06945
0.04721
0.07353
-0.19389
-0.07942
0.05306
-0.18250
0.26175
-0.00072
-0.07458
0.06223
0.16068
0.13506
-0.31843
0.00182
0.02120
0.21183
0.20962
-0.14335
-0.14258
-0.03855
0.08657
0.31370
0.04493
-0.19851
-0.07923
0.21291
0.21473
0.33137
