-0.23521
-0.18886
0.49971
0.00844
-0.32822
0.07352
0.11166
-0.25109
0.31591
-0.37191
0.49868
-0.52532
-0.07910
-0.27164
-0.48728
-0.05298
0.03891
0.22026
0.18055
-0.10200
-0.38555
0.21632
0.01636
0.77207
-0.02008
0.10916
0.07239
0.36996
-0.27741
-0.16848
0.03006
0.42300
-0.31939
-0.00215
0.11769
0.06060
-0.26450
0.28091
0.21312
-0.42977
-0.40819
-0.12384
0.02063
-0.02464
0.09624
-0.05835
-0.25628
0.55633
-0.21542
-0.02220
0.10074
-0.05470
-0.05918
0.61918
-0.24923
-0.28242
0.04519
0.28312
0.38139
-0.28039
-0.05592
-0.28918
0.19098
0.35656
0.10478
-0.10750
0.32806
-0.05857
-0.24268
0.04022
0.19250
0.05412
-0.24542
0.43948
0.08040
-0.01737
-0.20004
-0.51086
0.07300
0.30601
-0.03551
-0.28645
-0.14291
-0.22425
-0.20960
0.13739
0.17793
0.04552
-0.01632
0.53883
-0.27264
-0.10540
-0.24789
-0.22556
0.04849
-0.35280
-0.32516
0.25673
0.33588
-0.06560
0.11982
-0.23716
-0.83171
-0.05998
0.48113
-0.46790
-0.29795
0.07868
-0.05081
-0.16296
0.07129
-0.23377
0.49934
-0.03313
0.07217
-0.29549
0.09915
-0.02984
-0.16672
0.01993
-0.14368
-0.27896
-0.28725
-0.43183
0.37305
0.42442
-0.07345
-0.06986
-0.49482
-0.06697
0.16922
-0.29375
-0.19621
0.04804
-0.34274
-0.13127
-0.09220
-0.25081
0.43966
0.32184
-0.10756
0.26385
-0.20668
-0.22931
0.07919
-0.05664
-0.11718
0.00125
0.05640
-0.06644
0.50254
-0.06325
0.46754
-0.06361
-0.32384
-0.01536
0.75871
-0.09164
-0.11251
-0.01120
-0.08025
0.48229
0.03094
-0.23942
-0.04668
-0.08191
0.03298
-0.25573
-0.09486
0.11986
-0.61768
0.05576
-0.29263
0.12498
-0.23053
-0.16802
0.05800
0.34878
-0.36848
0.46199
0.21419
-0.16774
0.20755
0.03527
0.22913
-0.30787
0.07000
-0.10845
-0.04723
-0.27381
0.41519
-0.32408
-0.05315
0.33844
-0.00361
0.18504
-0.29797
-0.25719
-0.03809
-0.20781
-0.39111
0.00115
-0.08842
-0.00272
-0.19924
0.04893
-0.28713
-0.26293
-0.36127
-0.41496
0.00058
0.04187
0.24485
-0.02201
0.07707
-0.46793
-0.06599
-0.05202
0.29762
-0.04144
0.00391
-0.27737
0.48163
-0.34441
-0.01337
0.21799
0.34838
0.27634
-0.00090
-0.22505
0.22400
0.32282
0.38061
-0.21059
0.21683
-0.06712
0.48803
0.22290
0.07140
-0.06794
-0.12538
0.50020
-0.24791
-0.02258
-0.10274
0.27250
0.03669
0.31677
-0.01484
0.42178
0.41084
0.12678
0.36589
-0.16455
-0.33450
-0.03916
-0.20561
-0.23989
0.28772
-0.34138
0.21478
-0.51668
-0.21444
0.42702
-0.10758
-0.42344
0.07042
0.05238
-0.42855
-0.49964
0.17833
0.01698
0.34270
0.07717
0.38193
-0.08279
-0.10677
0.03192
-0.04387
0.14309
0.10638
-0.23819
-0.01218
-0.22757
0.20731
0.01880
0.49963
-0.02113
0.30788
0.28422
0.03711
0.23251
0.20488
-0.37601
-0.07191
-0.01068
0.37274
0.06942
-0.21374
-0.11413
-0.08066
-0.01162
0.13629
-0.08339
-0.01837
0.30855
0.35479
0.26692
-0.23680
-0.09693
0.32295
-0.37692
-0.15113
-0.16535
0.20866
-0.08358
0.26151
0.50152
-0.37575
0.04288
0.37644
-0.21947
-0.23272
-0.00019
0.03999
-0.30243
0.24781
0.01873
0.01374
0.26309
0.00057
0.29720
0.05648
-0.03495
0.00888
0.35644
-0.23398
-0.29982
0.38227
-0.01642
0.27236
-0.31285
0.25209
0.20701
0.21504
0.52594
-0.22979
0.42163
0.36614
0.24448
0.25774
0.01768
0.07242
0.25465
0.27136
-0.03875
-0.24911
0.37977
-0.40302
-0.27651
-0.03604
-0.21325
0.01232
-0.37152
-0.04711
-0.10975
0.04115
-0.22175
-0.12457
0.00695
-0.14540
-0.03210
0.01055
-0.48911
0.00615
0.05821
0.30763
0.40943
-0.02764
0.06286
-0.64890
-0.06868
-0.17094
-0.28664
0.11196
0.00216
-0.49868
-0.05958
0.46565
-0.29073
-0.17316
0.07298
-0.09928
0.34439
-0.22232
0.49059
0.09722
0.15075
0.30267
-0.07136
-0.30058
-0.12030
-0.08840
0.03384
-0.12610
-0.01470
-0.35029
0.05180
-0.07310
0.02277
-0.07341
0.07230
-0.01852
-0.45530
-0.04596
-0.29366
0.00170
-0.16869
0.35797
0.01293
0.22868
0.00509
-0.12538
0.06111
-0.39294
-0.18399
-0.24195
0.22837
0.14690
-0.33615
0.17105
-0.14168
-0.38232
0.29511
-0.42858
0.04718
0.06733
0.16002
-0.05709
0.09440
-0.13734
-0.14893
0.17678
-0.15254
0.28216
-0.35743
0.05135
-0.35788
0.22699
0.32634
0.03281
0.13812
0.21619
0.00208
0.38205
0.06120
0.13953
0.10764
-0.31627
0.29296
0.21531
-0.21668
0.28539
0.00058
0.13282
0.00883
-0.22830
0.39885
0.35670
0.02656
0.12275
0.24600
-0.14729
0.48971
-0.32348
-0.00479
0.19568
-0.52627
-0.20537
-0.05344
0.01925
0.16417
-0.37120
-0.16631
0.40530
0.36412
-0.05817
0.01724
-0.22863
-0.23487
0.21710
0.07043
-0.23245
-0.35298
0.08134
0.00111
-0.06424
0.31421
0.06556
-0.20656
0.02618
-0.14359
-0.16147
0.18479
-0.20767
0.62940
0.35467
-0.00905
-0.19959
-0.24150
0.35982
-0.35965
0.18927
0.07571
0.40216
0.20850
-0.35763
0.40645
-0.28693
-0.04888
0.22586
0.30363
0.07150
0.02606
-0.27976
-0.39542
-0.09153
-0.07518
-0.00882
-0.28107
0.02005
-0.24246
0.21348
0.63918
0.00979
0.24537
-0.29193
-0.02672
-0.17474
0.04410
-0.09114
-0.25004
-0.22230
-0.19383
-0.41637
0.18977
-0.03340
-0.01660
0.20484
0.04218
-0.20710
0.52784
-0.29778
0.06611
-0.49855
-0.07839
-0.24178
0.02753
-0.37313
-0.21150
-0.18557
-0.43206
0.45269
0.35697
-0.11332
0.27712
-0.49970
0.44034
-0.10881
0.05709
-0.16420
0.00061
-0.19028
0.50411
0.18466
0.02632
-0.30282
0.42203
0.08483
0.02479
0.53877
-0.07128
-0.05513
-0.29789
0.01113
-0.19986
-0.30478
-0.31833
-0.41682
-0.17666
-0.24738
0.00191
0.67390
0.27923
-0.12612
0.07216
-0.45994
0.14073
-0.25953
0.21675
0.05891
-0.18198
-0.35109
-0.04212
-0.28999
-0.24075
0.18789
-0.03176
0.39857
0.18654
0.06719
0.35689
-0.02857
0.15861
0.01710
0.02848
-0.22348
-0.00309
-0.03318
-0.53852
0.22434
-0.07116
-0.15829
0.06666
-0.26927
0.30919
0.27345
0.36987
0.28186
-0.38513
-0.05032
0.06651
-0.49533
-0.06625
0.41844
-0.09686
0.03170
-0.01437
0.17280
0.25339
-0.14325
-0.16014
0.03848
0.43939
0.32255
0.15499
-0.35790
-0.09960
-0.15641
-0.31065
0.06711
-0.21526
-0.43329
-0.18801
0.13930
0.07056
0.07150
-0.12223
0.22928
0.00029
0.11825
-0.20324
-0.35794
-0.00533
0.01613
-0.35120
-0.06041
0.19210
-0.02539
0.69797
0.30862
0.57330
0.36168
0.24763
-0.08536
-0.03068
0.21816
0.22594
0.05933
0.35836
0.15064
-0.22946
0.27339
-0.21620
0.22661
-0.36937
0.23604
-0.06670
0.26166
0.03597
0.09803
0.36196
-0.24393
0.05034
0.24968
-0.03400
-0.09784
0.21249
0.04765
0.19515
0.21536
-0.21397
-0.05321
0.22753
0.18151
0.06004
-0.19257
-0.07017
0.40021
-0.27625
0.27871
0.21427
-0.27342
0.32421
0.06544
0.05613
0.21168
0.01990
-0.06128
-0.22300
-0.22315
-0.02163
0.29968
-0.06988
-0.20376
-0.19121
0.21439
-0.17161
-0.03852
-0.50435
-0.02584
-0.13023
0.11604
0.20169
-0.21563
-0.35573
-0.23422
-0.20673
-0.29326
0.05852
-0.22322
0.36461
0.21218
0.04351
0.35820
-0.09544
-0.19492
-0.02744
-0.00295
0.20392
-0.03467
0.19292
-0.03342
-0.21297
-0.16253
-0.36490
0.26728
-0.25919
0.06367
-0.03834
0.31472
-0.34837
-0.21223
0.40489
-0.35795
0.35886
-0.29802
-0.52275
0.27228
0.09863
0.21411
0.03384
-0.43257
0.18465
0.05099
-0.05124
0.20727
0.28977
-0.35974
-0.07496
-0.06925
0.35444
-0.03370
0.14642
-0.27385
-0.16333
0.03026
0.37865
0.21549
-0.03818
-0.05344
-0.02565
0.26684
0.14393
0.38525
0.18803
0.07717
0.20189
-0.03326
0.02740
0.15301
-0.03854
0.26312
-0.06956
0.47143
0.04302
0.08879
-0.20221
0.42532
-0.18266
-0.29550
-0.31028
0.08643
0.15931
-0.31233
-0.00357
-0.16480
0.18241
0.08344
-0.03540
-0.07953
0.06614
-0.14069
-0.03472
-0.27569
-0.35501
-0.37073
0.00171
-0.27422
-0.13925
0.41254
0.07078
-0.11784
-0.23069
0.00793
-0.35872
0.02249
-0.06957
-0.23904
0.19120
