-0.00816
0.52696
-0.17016
-0.03235
0.01607
0.14042
0.06438
0.04297
-0.02838
0.07111
-0.01186
-0.01697
-0.00190
-0.01357
-0.21394
0.13306
-0.00167
0.05117
-0.13229
-0.02403
-0.02657
0.09888
-0.20187
-0.10094
-0.12917
-0.02286
-0.02028
-0.01698
-0.00214
-0.03100
-0.02354
-0.02966
-0.42351
-0.02854
0.07814
0.16048
-0.11742
-0.00754
-0.03281
-0.00092
-0.01839
-0.01831
-0.01156
-0.02987
-0.01666
-0.02445
-0.02692
-0.00085
-0.17255
0.07810
-0.01694
0.07909
-0.00977
-0.02121
-0.03914
-0.03334
-0.02470
0.14000
-0.01573
-0.00961
-0.00544
0.71442
-0.02321
0.04738
-0.01276
0.02529
0.23711
0.07692
-0.10639
-0.01253
-0.00418
-0.01592
-0.04925
-0.01586
-0.00006
0.10893
0.06665
-0.03317
-0.01829
0.00110
-0.01416
-0.00475
-0.11414
0.88375
-0.00355
-0.01414
0.47280
-0.03232
0.19085
-0.00331
-0.18893
-0.02049
-0.01940
-0.00096
-0.01508
-0.06161
-0.01875
0.20826
-0.00164
0.00894
-0.01247
0.14215
-0.02804
-0.00855
0.63870
-0.10434
0.17491
-0.01985
-0.02545
0.14900
-0.02996
-0.18555
-0.15931
-0.00569
-0.03100
0.11610
-0.02374
-0.03277
-0.00538
-0.01460
