-0.02368
-0.03164
-1.30935
0.30745
-0.00790
-0.04596
0.01088
-0.02154
-0.01187
0.07611
1.15491
0.45102
-0.00705
-0.00758
-0.42769
0.01566
0.71825
-0.02179
-0.02533
-0.02880
-0.58762
-0.00621
0.27515
0.61427
-0.00257
2.63155
-0.02042
-0.03320
-0.01080
-0.01757
0.07976
0.00225
-0.27031
-0.05403
0.51039
0.00663
-0.70487
-0.00374
-0.00786
-0.02173
-0.10157
-0.03345
-0.09763
-0.02536
-0.01045
-0.34341
-0.01657
0.27375
0.09396
-0.10697
-0.59047
-1.14309
-0.01790
-0.01871
-1.05129
-0.03451
-0.03051
-0.02589
-0.27074
-0.01680
-0.58090
-0.43296
-0.02237
-0.31492
0.04185
-0.00497
-0.28514
0.18313
-0.02559
0.88567
-0.03488
-0.02514
-0.08071
0.28663
-0.01813
0.17972
-0.52322
-0.00958
-0.00955
-0.06221
0.33193
-0.22732
-0.01930
-0.57324
-0.60655
-0.03433
-0.02968
-0.02184
-0.08140
-0.09817
-0.13687
0.29374
0.24160
-0.62618
-0.02879
0.26850
-0.22370
0.98450
0.07414
0.22744
0.18777
-0.01805
0.26554
-0.04002
-0.04180
-0.53337
0.68293
-0.02184
-0.01050
-0.82510
0.07514
0.16822
-0.01487
0.10059
-0.06696
-0.00698
0.70710
-0.01792
-0.01447
-0.01884
